107 64
395_2_442 -0.2781626 0.21639557 0.016288958 0.40325594 -0.13905303 -0.40029603 0.11594246 -0.85595167 -0.33056286 0.34093958 0.01703151 -0.10655319 -0.09640204 0.46435022 -0.72714096 0.3871898 -0.5360973 1.2670151 -0.029702889 -0.86069626 1.123005 -0.78354675 -0.95578825 0.33829677 0.77359974 -0.2723869 1.0219713 -0.5845749 0.193548 -0.074352294 0.27936482 -0.7524854 1.0191423 1.4794453 -1.4313014 0.17951113 -0.3014226 0.26876366 0.9227083 1.1352316 -0.19144225 -0.15407735 -0.40909082 -0.8804913 0.44819245 -0.23042701 -0.40910688 -0.1730196 0.86667466 1.5479472 -1.0687311 0.3047225 -1.1535279 0.642094 -0.417204 0.11247191 0.5906623 -0.042416487 -0.83654165 0.3943142 -1.3369548 0.3938072 -0.47878656 -1.0850823
401_2_437 0.36612985 -1.0014195 -0.5125048 -1.0604831 -0.27624583 -0.32899657 -0.29858947 0.45538732 0.27470317 0.1735339 0.20828727 -0.058208197 0.5790154 -0.5715376 0.6554958 0.111657396 -0.96936893 0.8591483 0.6674814 -0.21046829 0.26797995 1.3810414 0.6882281 -0.38621533 0.50258076 -0.4859378 -0.755909 -0.5652782 0.29138967 -0.1447481 -0.31666657 1.0561311 -0.22209713 0.0026524712 -1.2128323 0.102110855 0.79849094 -1.312713 -0.71889067 -1.3628199 -0.10236771 0.49056703 -1.1108471 0.10628669 -0.51688015 -0.73127145 -0.67906773 0.14722799 -0.15032978 0.688015 1.2646698 0.8884266 -1.6464281 -0.03498368 -1.4408958 0.5054135 0.20516081 -0.40568063 -0.28406537 0.7760215 -0.98436844 -0.21485625 -0.61399066 0.14865276
395_3_441 0.22224233 0.16293491 0.26725128 0.33998483 -0.37831903 -0.43894812 0.52728134 -0.49124357 -0.77167004 0.015783776 0.79794353 -0.32846054 -0.42436644 0.651896 -1.071149 0.26053968 -0.00059791683 1.4409801 0.04805005 -1.0736645 -0.05563542 -0.7527342 -0.89244515 -0.06668835 0.45504883 -0.8659899 0.74581844 -0.5436249 -0.016861772 -0.18090068 0.22114891 -0.6758541 1.0267185 0.85794187 -1.5675687 0.052027777 -0.54480535 -0.15299563 0.13236289 0.33018008 0.15585597 -0.20282897 -0.6579842 -0.17615299 0.45417228 -0.97845876 -0.25771275 -0.17834546 0.3343118 0.65376776 -0.853306 0.5378672 -1.0317711 0.05873276 -0.5935875 0.31878388 0.50567764 -0.28871223 -0.46603137 0.14425847 -2.0497425 0.8143037 -0.3666266 -0.22747615
395_4_440 -0.33345333 0.6645854 0.7662321 0.5918002 -0.24810499 -0.43996033 -0.15391953 -0.012499898 -0.59075457 0.44387573 0.08518563 0.77209795 0.07883198 0.16129172 -0.9103075 -0.11262091 -0.12420418 1.3444868 0.3344611 -0.13386075 0.37507117 -0.76158184 -0.38885942 0.17877787 0.22209696 0.18283005 0.8924214 -0.00747952 0.31892475 -0.08343846 0.19447972 -0.8297003 0.81891394 0.33329213 -1.3588816 0.4758788 -0.5108053 -0.20842265 0.62750053 0.63552237 -0.22343837 -0.4000208 -0.35533115 -0.16012092 0.39371565 -0.8642315 -0.46223864 0.4936855 0.9995117 0.81759375 -0.7610341 0.51380503 -1.5774453 0.28048256 -0.44777045 0.5150021 0.9573103 -0.38303488 -0.038745947 0.17161593 -1.2099038 0.7899348 0.17508803 -0.8363943
394_1_434 -0.18065554 0.22772366 4.9258142e-05 -0.04452745 -0.0727502 -0.5399258 0.2249315 -0.823177 -0.5422329 0.43075436 0.56775874 0.276281 -0.2117442 0.6522707 -0.952293 0.17804492 -0.3420964 1.0328714 0.40094057 -1.1368252 0.47120216 -0.39665505 -0.3087071 0.006330066 -0.122900076 0.21731694 0.5665763 -0.20597634 0.17214197 -0.10447344 0.16711493 -0.54169476 1.0711756 1.1937482 -1.3944403 0.027262717 -0.107419334 -0.25105202 0.45066467 1.0211529 0.096711546 -0.5567748 0.098229066 0.3884446 0.122394636 -0.26599553 -0.042633455 0.4550005 1.0438513 1.1500335 -0.33434764 -0.00534088 -0.90769076 -0.10378754 -0.5723317 0.7761174 0.6745268 -0.70110714 -0.46972713 0.3827499 -0.63278013 0.5723491 -0.71001875 0.27653912
394_2_433 0.43835697 -0.21280392 0.25841635 0.5729882 0.08806222 -0.62714666 0.17845313 -0.47219774 -0.13166955 0.3876065 -0.17725179 0.24347048 -0.020958131 0.50558794 -0.7233739 0.2898767 -0.5639705 1.208738 -0.15784125 -0.32394388 0.75981784 0.14385171 -0.8244843 -0.051700935 0.779283 0.28444383 0.38522318 -0.07407219 0.31708434 -0.20610875 -0.09867916 -1.0199832 0.7011536 1.3309524 -1.063734 -0.11641715 -0.67634743 -0.083352074 0.8624841 0.558783 0.2742478 -0.21580964 0.13884816 0.23186322 0.47242835 -0.8065551 -0.1716143 0.48377386 0.27664953 0.32198945 -0.40164682 0.12718613 -1.0373125 -0.113641724 -0.23355971 -0.29174486 0.033655148 -0.4959904 -0.46688128 0.07901987 -1.2674434 0.98455274 0.09305142 -0.15994863
393_1_432 0.16106303 -0.43922266 0.4526636 0.23702504 -0.31230584 -0.6173675 -0.6618148 -0.14619416 -0.33894348 0.66141486 0.30130035 0.7073756 -0.008990397 0.6031529 -0.5650276 0.06606189 0.28298 1.3904903 -0.111874044 -0.8469949 0.82048064 -0.6351184 -1.1093667 0.31220683 0.005314554 -0.44216844 0.30621046 -0.44845703 0.24975917 0.24589656 0.3968271 -0.24131712 0.8097346 0.2712078 -0.9839171 0.035484005 0.14491768 -0.029511223 0.8662927 0.4053576 0.40598494 -0.34131375 -0.5411291 0.016024515 0.738371 -0.1947873 -0.0790046 0.13396752 0.5784545 0.5317154 -0.5905005 -0.15897974 -0.611731 -0.20087777 -0.40528378 0.24167126 0.26645833 -0.18263903 -0.8046984 0.26317412 -0.9546319 0.14850642 0.09618091 -0.39156875
401_1_435 -0.141044 -1.3916115 0.5166093 -0.3833718 0.46129712 -0.48519954 -0.60413826 0.5725667 0.15414143 0.52995366 0.19541234 0.6534657 -0.15522112 0.22019759 0.31019327 -1.4556305 -0.8147643 0.30530196 0.49094728 -0.05398286 1.1673893 0.6903486 0.21827613 -0.14322266 0.6095157 -0.57344675 -0.2355285 0.47130537 0.6712321 0.2552398 -0.23389073 0.49650759 -0.1226373 0.71909785 -1.2382629 0.062289134 0.18587506 -0.9741294 -0.09042788 -0.59296215 -0.35059825 0.2843791 -0.58402264 -0.18255958 0.03420624 -0.07959138 0.64580876 0.26762053 0.871152 -0.16284041 1.3204783 0.3864899 -1.3221835 0.5310425 -2.0069056 0.24026842 0.19266209 -0.5413749 -0.2753265 1.074641 -0.6126324 0.15145369 -0.3665378 -0.09627445
393_2_429 0.10396038 -0.08570946 0.68384486 0.1690187 -0.103873484 -0.79974383 -0.09478237 -0.10067719 -0.18096599 0.03255226 0.7281389 0.17316782 0.010387623 0.07356816 -0.724789 0.39847347 -0.24425186 0.39312172 0.6103011 -0.47357604 0.67527187 -0.5298927 -0.93437856 0.60983783 0.42077342 -0.36870888 0.69637626 0.050381836 0.18956393 -0.41231674 0.059564188 -0.97659874 1.2474881 1.0072057 -0.6850234 0.24724823 -0.50121564 -0.11442537 0.10342864 -0.032418504 -0.4346986 -0.5260065 -0.20548518 -0.25079542 -0.06430583 0.25248706 0.1985986 -0.2245174 0.9761603 0.23374937 -0.2905128 0.09955858 -0.94226885 0.10485053 0.008280375 0.28445497 0.12599471 -0.46690142 -0.23770991 0.17306516 -1.058122 0.33211118 -0.15992647 -0.2194952
393_3_428 -0.56183976 -0.1764675 0.32232037 0.93777925 -0.08890488 -0.29127455 0.30042338 -0.122223295 -0.37236392 0.11344204 -0.35004407 0.28855196 -0.38131052 0.32220823 -0.492191 0.2853115 -0.34220096 0.6387955 -0.0007381753 -0.6309831 0.6883735 -0.12404174 -0.5542748 -0.02627439 -0.06831129 0.060154397 0.930169 -0.24379167 -0.29814002 0.38686335 0.4335475 -0.6118586 0.92254716 0.70287836 -1.310231 -0.07589401 -0.06196325 -0.39177015 0.052037448 0.054469734 -0.25052273 -0.25954413 -0.14340056 0.46332768 -0.20553169 -0.46420002 -0.19060785 -0.4961493 0.15444344 0.60641336 -0.6373869 0.14113371 -0.80059505 -0.081895955 -0.30267155 -0.009379404 0.7041449 -0.25313693 -0.70776033 0.59065616 -0.8580741 -0.0952145 0.39239588 -0.15892851
400_4_431 -0.050173752 -0.9742712 0.04233151 -0.86371195 -0.035109583 -0.12264669 0.11551893 0.4192241 0.11387106 0.31260574 -0.46020338 0.27930942 0.44948724 -0.5192498 0.3731895 -0.6971722 -0.5136411 0.5886037 0.42112023 -0.21204853 1.164075 0.83910495 -0.9163134 0.16775836 0.18759155 -0.2684318 -0.09929352 -0.82901794 0.5165058 0.10624477 -0.59156215 1.3393457 0.7307668 0.69750786 -1.0462664 -0.28102946 0.2847568 -0.5680733 -0.4002423 -0.2859986 -0.12091808 0.283459 -1.0029576 0.6366323 -0.073191494 -0.13108204 0.6215859 0.49968255 1.0128883 -0.16113234 0.7611274 0.6855307 -0.9273277 0.3248914 -1.7442517 0.039659247 -0.44564408 -0.2703573 -0.020075878 1.1559333 -0.41186714 -0.04486227 -0.32564697 -0.03646567
400_3_430 -0.11350281 -0.85931337 0.32579005 -0.6053164 0.26583457 -0.006941569 -0.2134391 0.18468437 0.56962866 -0.39427313 -0.46162736 0.37890106 -0.6933955 -0.6235746 0.5475989 -0.4334541 -1.0676641 0.45873818 0.46933496 -0.12127389 0.8384527 0.50895876 -0.494489 0.19200999 0.84144616 -0.43540233 -0.20341004 -0.29317796 0.2071914 -0.10789712 -0.45973733 0.5563963 0.06846347 1.0805008 -0.80374974 -0.34602588 0.5708534 -0.9142292 0.16391262 -1.1468494 -0.27440464 0.10209065 -0.6527249 -0.39250585 -0.24134219 -0.36786717 0.9959148 0.18282455 0.19623494 0.37420723 0.6886671 0.9419591 -0.7831098 -0.40392876 -1.6307796 -0.40402567 -0.13431078 -0.79255205 -0.35628617 0.48491207 -0.2769763 0.125631 -0.19554652 -0.69747734
393_4_426 0.2782015 0.47799897 0.34420007 0.29011524 0.17443842 0.087048836 -0.08575217 -0.44416252 -0.35022327 0.11552074 0.16536163 -0.051252905 -0.039619442 0.09759246 -0.34466466 -0.38520464 -0.28696302 1.6458918 0.16912931 -0.5566047 0.37745813 -0.4239204 -0.8085572 -0.13662924 -0.0063270493 -0.19819966 0.39011115 -0.44037575 0.29068273 0.32809857 -0.31289324 -0.8251056 0.65515035 0.63982296 -0.48724377 0.20309767 0.033915628 -0.732065 0.2188737 0.4246636 -0.42108595 -0.50892633 0.017087111 0.33347887 0.16603877 -0.058096245 -0.240465 -0.4401021 0.3797236 0.4747418 0.04041833 -0.04353742 -0.610811 0.520909 -0.25570688 0.10263684 0.23482724 0.20834821 -0.6380713 0.107745185 -0.67395324 0.98348236 -0.32641408 -0.5957125
400_1_423 -0.32037547 -1.0824218 -0.38777292 -0.52878964 0.44857362 -0.13551697 -0.5667932 -0.035646066 0.2661304 -0.05283437 0.39988706 0.25178638 -0.5282474 -0.679206 0.3502045 -0.6529244 -0.43712243 0.6022292 0.1669803 -0.19780855 0.2143086 0.6568341 -0.34990266 -0.10759659 0.54563856 -0.3375292 0.10639068 -0.47417223 0.20835964 0.01364117 0.5367085 1.0438529 0.5754727 0.9002311 -1.4120921 -0.28842857 0.47594452 -0.7985891 -0.49493465 -0.26914498 -0.42861134 0.040020783 -0.1467319 0.04080566 -0.21411245 -0.1179327 -0.048257586 -0.37765306 0.41633302 -0.29821914 1.3788822 0.12804374 -0.8869266 -0.029550906 -1.1760333 -0.6635022 -0.43052536 -0.24223684 -0.44162163 0.5336717 -0.83756477 -0.009474382 -0.13646424 -0.20024338
392_1_421 -0.07193505 0.052910704 -0.13331458 0.40272102 -0.046740625 -0.8009835 0.36767477 -0.34653085 0.23320447 0.16030677 0.026576862 0.20142086 -0.5488462 0.40180355 -0.7165612 0.13367088 -0.113052726 1.0857403 0.3840734 -0.18472779 0.29729974 -0.44467005 -0.4872067 0.10513661 0.51687497 -0.36272046 -0.17586815 0.029630255 -0.0521358 0.63051564 -0.13066006 -0.22965586 0.993386 0.3365933 -0.28394017 0.23468648 -0.62079775 0.14422315 -0.2494498 0.824024 -0.020323282 -0.5044103 -0.16742392 -0.2153593 0.22503184 -0.7981691 0.21972573 0.08566126 0.58901036 0.32272965 -0.42661458 0.16302349 -0.8665602 0.27567825 -0.7013186 -0.06863669 0.4978853 -0.3890457 -0.7682952 0.10967721 -0.3764985 0.021589454 -0.2102188 -0.47326693
399_3_417 0.0009028315 -0.70819396 -0.36328405 -1.027314 0.21796231 -0.059798244 -0.2567676 0.44979125 0.28256914 0.15199262 -0.30287483 0.27057314 -0.039608017 -0.001087777 0.20346734 -0.5006051 -0.43569955 1.2891703 0.43003848 0.05635736 1.0415329 -0.08850962 0.12687403 0.4614261 0.4658567 -0.36481246 -0.43865335 -0.44388643 0.09520441 0.23308301 0.029211268 1.0642211 0.06256739 0.2397163 -0.19436201 0.058812648 -0.18351676 -0.706065 -0.3922331 -0.5937513 -0.2382681 -0.01205235 -0.581954 -0.7555768 -0.10936615 0.0915286 0.08452824 -0.2529498 1.0264821 -0.061928146 0.96084416 0.27703848 -1.1034839 0.044409182 -1.3173635 -0.17128354 -0.3019292 -0.17812793 -0.10783454 0.31268185 -0.41541293 -0.07432235 -0.6339204 -0.93525463
392_2_420 0.53766423 0.0842965 0.22473355 0.16841112 0.20243743 -0.30962452 -0.17887749 -0.049206853 -0.124705605 -0.37468445 0.11461795 -0.2116262 -0.06977796 -0.10416593 -0.29303598 0.2714806 -0.17012577 0.38398552 0.10543049 -0.30532387 0.4318981 -0.20815146 -0.38244966 -0.32710043 0.09841241 -0.13090515 0.8730309 0.076735914 -0.07298238 0.3499265 0.17246072 -0.52186906 0.83585805 0.5199869 -1.0961283 -0.13065962 0.13070396 -0.3935026 0.3367527 0.5183696 0.7349522 -0.21822026 -0.2830001 -0.047089886 0.7885786 -0.56548 -0.08020569 -0.24712816 0.649041 0.4291092 -0.8092806 0.3139162 -1.0455607 0.37934148 -0.43935078 0.45935765 -0.31969494 -0.14473496 0.073464565 0.06135933 -0.119582914 0.2919497 -0.20621122 -0.21920416
392_3_416 -0.4544277 0.11894709 -0.42333615 -0.26020113 0.26932433 -0.08641039 0.15137906 -0.016225265 -1.0207574 0.19871014 0.52393925 0.07288166 0.108096056 0.14661373 -0.4644582 0.2958617 -0.4338986 0.805209 -0.12909378 -0.2659075 0.6845082 -0.40060678 -0.5273899 0.15592244 0.128174 -0.01043832 0.25649732 -0.13300578 -0.63038516 -0.5119968 0.11433278 -0.42941567 0.4746983 0.28199604 -0.7575705 0.027193466 -0.48185456 -0.23064846 0.4518291 0.6131204 0.03310585 -0.2902604 -0.37357515 0.19461791 0.7270419 -0.45854437 0.12451793 -0.14980626 0.5475813 -0.012939136 0.2649799 0.4342952 -0.5232979 0.46184248 0.03476988 -0.04121646 0.40273663 -0.4226675 -0.40610185 0.39257246 -0.73711944 -0.04759289 0.14486663 -0.41751504
399_2_414 -0.21668805 -0.11583603 -0.018329855 -0.58774847 -0.44748595 -0.17965819 0.21026511 0.4811396 0.42139307 0.16084397 -0.22076589 -0.040677674 -0.99773973 -0.16400482 0.6537426 -1.0291831 -0.14359412 0.19439816 0.7511145 -0.3110534 0.42580912 0.46056494 0.05607389 -0.5496611 0.29821143 -0.13060021 -0.13715948 -0.53967035 -0.001983243 0.11083466 0.23744583 0.24256586 0.3706238 0.24737522 -0.6772744 -0.69124997 0.15602522 -0.44457385 0.0005323202 -0.7139287 -0.1823383 0.3861185 -0.6310545 -0.38963687 -0.024575487 -0.1346411 -0.18214394 0.33919668 0.5140727 -0.053021893 0.49351922 0.57809377 -0.98608845 0.14826214 -1.4981731 0.15089175 -0.1362208 -0.10251412 -0.3461571 1.1815901 -0.690386 -0.23930494 -0.25602707 -0.40430534
391_1_415 0.13001747 0.008217557 0.25327095 0.26807168 -0.36662188 0.03074516 0.0135579705 -0.50271535 -0.29138723 0.09420861 0.39348978 0.30119097 0.14537963 0.05758285 -0.1803412 -0.20221992 -0.46928307 0.598253 0.35957196 -0.18218121 -0.03884121 -0.92126465 -0.6275677 0.1914535 0.03208143 -0.073016286 -0.12963851 0.057192586 -0.15009758 0.06853006 -0.1774189 -0.14634328 0.4904464 0.9927415 -1.1744164 -0.16472612 0.17534426 0.000853998 0.0015962915 0.30728382 -0.2162088 -0.20151196 -0.17190589 -0.16612145 0.13662353 -0.74723953 0.20966773 0.23623157 0.15855786 1.1164765 -0.3255958 -0.31565955 -0.27753103 0.17083317 0.019846978 -0.0025797123 -0.23646955 -0.48915446 -0.07993556 0.19378819 -0.69523925 0.17613244 0.59880865 -0.39359152
399_1_413 -0.29763266 -0.6704616 0.15612498 -0.70351183 0.7585076 -0.25785738 -0.31904855 0.15749261 0.035038576 -0.21261875 0.44554248 -0.19594108 -0.52947843 -0.4904299 0.2700068 -0.123988286 -0.3350885 -0.24807076 0.5100251 -0.0006585275 0.60090667 0.04218444 -0.09458646 0.27721763 0.023063168 -0.37283996 0.1902167 -0.19203101 0.64870274 0.46274647 -0.079674326 0.8655101 0.31013414 0.19373052 -0.819874 -0.054734703 0.47207192 -0.80555516 -0.14320746 -0.41160548 -0.31702653 0.34720454 -0.8637678 -0.016294003 -0.13546543 0.019549659 0.17785625 0.45086864 0.34440336 0.33758283 0.46879575 0.1796726 -0.8974212 0.13468614 -1.0223714 0.89615136 -0.5255565 -0.57261294 0.34974948 0.28676504 -0.75608206 -0.22971582 -0.4012218 -0.60183454
388_3_243 0.3845143 0.44389108 0.54907244 -0.2358841 -0.45305577 -0.21046807 0.3334885 -0.18811439 0.005067019 0.7585129 -0.060424645 0.28574428 -0.2195664 0.069179974 -0.32235625 0.18213743 -0.1742012 0.46879056 0.055288542 -0.28348428 0.0027152488 -0.048740465 -0.4820214 -0.1867814 -0.22833459 0.35296986 0.045889948 -0.1421047 0.20925511 -0.2738628 0.78467155 -0.39639318 0.61858064 0.79717475 -0.48836437 -0.006475285 0.20705526 0.12958361 -0.03907051 0.27449676 0.18760274 -0.034772873 0.24156097 -0.13104686 0.32256323 -0.20023131 -0.23773691 -0.20526002 0.4998861 0.030810365 -0.21863398 0.27391794 -0.47719538 0.75796723 -0.4874734 0.39033133 0.24323839 -0.11715528 -0.77514213 0.26410505 -1.2500182 -0.005678483 -0.006814974 -0.44106784
398_3_411 0.14312842 -0.504622 0.18847723 -0.2886841 0.14438902 0.03288906 0.31892586 0.0021718296 -0.14688317 0.593088 -0.16605848 0.4400627 -0.33427745 -0.059770137 0.5028154 -0.09992502 -0.14756119 0.4166799 0.5322864 -0.2264113 -0.08480296 0.15768653 -0.05531839 0.30366376 -0.2841743 -0.045392428 -0.435789 0.23684894 0.09923902 -0.046518125 -0.427067 1.160702 -0.0088084685 0.5275937 -0.7210028 -0.002456283 0.5655993 -0.55453247 -0.5507494 -0.20229258 -0.3978468 0.33343726 -0.062483143 -0.2529619 -0.27768767 -0.5090779 0.022008892 0.5542249 0.59845483 -0.07947108 0.84340554 0.68517244 -0.70738304 -0.015314322 -1.3055238 -0.013740559 0.08716797 -0.44127575 -0.2862486 0.42984563 -0.6448228 0.5650662 0.4155434 -0.66444296
530_1_16 0.04453583 -0.20967458 0.45642 0.053229142 0.57457006 -0.046144016 0.12449333 -0.9010801 -0.5906073 0.40242913 0.46047637 0.16029134 -0.17361729 -0.3236783 -0.029029708 0.5797775 -0.21759 0.717415 0.11412004 -0.15070997 0.2752581 0.03415893 -0.20896293 0.2583307 0.029430075 -0.17055742 0.6250212 -0.117197074 0.27575636 0.19652052 -0.20745263 -0.469645 0.21716174 0.17346099 -0.23110476 0.04576074 0.048337214 -0.02087777 0.47226214 0.14917558 0.12412106 -0.34096706 -0.36696336 0.11586357 -0.24769552 -0.38648048 0.098275736 0.10550659 0.44668597 0.4609939 -0.9442947 0.34066346 -0.1715068 0.05006127 -0.6686057 -0.040409014 0.47764727 -0.71455455 -0.38519427 -0.052752253 -0.9150608 0.30144185 -0.14479156 -0.4584728
396_3_246 -0.057775356 0.043862388 -0.01080328 -0.8161937 0.22535063 0.18625063 -0.04180301 0.018681964 -0.057241805 -0.0131167555 -0.09960771 -0.034715105 0.3272804 -0.35701302 0.13832094 -0.5342396 -0.42383522 0.13156219 0.5603398 0.55335337 0.67123103 0.2628929 0.04987341 -0.14769007 0.571878 -0.19528025 -0.57594806 -0.31339708 0.0831959 -0.122714415 -0.097691625 0.430185 -0.14713253 0.8840427 -1.1170547 0.009246445 0.23165098 -0.23785965 0.37572822 -0.22541733 0.44573197 0.0910983 -0.50338537 -0.20251405 0.27680123 -0.26869053 0.15640748 0.4765824 0.30254045 -0.33197013 1.1334169 0.40867504 -1.0229807 0.15446804 -0.57976466 -0.24030136 -0.17027578 -0.21254428 0.57215065 0.37577432 -0.9248745 0.08024174 0.085448705 -0.13096148
396_2_246 0.19138584 -0.9688286 -0.32717168 -0.6626314 0.6897215 0.12668216 -0.1448501 0.031034585 -0.19993864 0.32131842 0.6109406 0.18529752 -0.32937798 0.05510789 0.7354024 -0.5130212 -0.30188084 0.6398178 -0.22732508 -0.25757438 0.5794002 0.40597987 -0.30458096 -0.44077212 0.26030743 -0.3999377 -0.06927037 -0.56729406 -0.025130445 -0.47163454 -0.37994605 0.27019924 -0.44578403 0.02281548 -0.56420344 -0.42618626 0.1892943 -0.30817217 0.22901386 -0.16175658 0.17710707 -0.11605823 -0.5687135 -0.051878434 0.19543493 -0.29483074 0.049279273 0.27040905 0.5928692 0.25900978 0.4319278 0.35139924 -0.08098111 -0.37705883 -1.1242768 0.26905754 -0.19825278 -0.19341171 -0.13105574 0.4929424 -0.3801216 0.40160123 -0.3136177 -0.2704946
529_2_13 0.16013883 0.064124234 -0.12988575 0.02786289 0.21979651 -0.2983236 0.14189436 0.15492181 -0.22372863 0.11178806 0.05143576 0.72339517 0.31383634 0.040628374 -0.3603465 -0.43819994 -0.043017216 0.859428 -0.28092062 -0.24097002 0.1621613 0.13818042 0.42002955 -0.072402045 0.38005444 -0.55737585 0.5159502 -0.44487563 -0.093507536 -0.06279478 -0.19435042 -0.105189666 0.59083396 1.0578475 -0.64579344 0.16493367 -0.1528135 0.47863278 -0.08480613 0.3165807 0.06394212 -0.6132954 -0.26708174 0.048638597 0.26180074 0.027542237 -0.44494674 -0.27826262 0.41259256 0.19744352 -0.66843903 -0.21186209 -0.51835924 -0.08917767 0.1437545 0.35335898 0.3614256 -0.3125688 -0.1617925 0.29302275 -0.7500064 0.25843292 -0.0062031057 -0.182155
396_1_243 -0.029007815 -0.89206356 0.3011228 0.048453297 0.08187966 -0.50470644 -0.1538799 0.38099244 0.49257457 -0.09948212 -0.2671238 0.2965685 -0.08069294 -0.07368575 0.10613596 0.26291397 0.07045335 0.028281901 -0.057390492 -0.38390863 0.6088642 0.72571117 0.045053054 0.34125796 0.4294029 -0.24683245 -0.16854472 -0.2751903 -0.060122184 -0.18848826 0.4846257 0.73389244 0.112234846 0.5886284 -0.29697508 -0.11552624 0.46907744 0.29097393 -0.022640254 -0.4869507 0.5121117 0.40660024 -0.26551682 -0.21012951 0.45767465 -0.24457456 0.16004539 0.3778886 0.41409674 -0.13607994 0.66155255 0.18373448 -0.907253 -0.03084391 -1.1068465 0.34931692 -0.1379503 -0.21044831 -0.43272063 -0.020287286 -0.49621218 0.056707345 -0.53076243 -0.059825588
348_1_149 -0.1609401 0.75390506 0.11197145 -0.14218657 -0.22386438 -0.4343411 -0.26283956 -0.32448125 -0.25244746 0.07320316 0.07098451 -0.23264936 -0.16279404 -0.022163931 -0.76445794 -0.03212308 -0.10980715 0.5060354 0.27233097 -0.17004155 0.34237826 -0.07759074 -0.5364702 0.03435503 0.58203524 0.12954818 0.2375236 -0.46153536 0.2918615 0.26442054 -0.10327763 -0.51463175 0.5925218 0.5069674 -0.8283026 0.117350094 0.14978921 -0.1494987 0.40446946 0.08822789 -0.6742666 0.0061786566 -0.58083045 0.012217635 0.52201515 -0.1295348 -0.24824357 0.49203062 -0.41987565 -0.16331941 -0.5568963 0.13722609 -0.36239004 0.02332011 -0.24238153 0.46131575 0.22856429 -0.63300365 -0.4343241 0.1537822 -0.29153103 -0.15864211 -0.091690265 0.027564384
522_1_17 -0.12953183 -0.334132 0.117401436 -0.15073073 0.08343742 -0.42325652 -0.11083655 0.08645634 0.55415416 -0.09716121 0.31126478 0.24536382 0.09493559 -0.36504498 0.21740517 -0.85885113 -0.078586034 0.54368985 0.41817334 0.048717674 0.22241186 0.4336446 -0.21688488 0.12506072 0.49851418 -0.67342764 -0.73336184 -0.57056445 0.4330878 0.11566632 -0.33371562 0.28878725 0.07269302 0.65895087 -0.524944 0.16280894 -0.069512926 0.23401964 -0.5454311 -0.44736454 -0.84906167 -0.0613957 -0.57355595 -0.19530165 -0.5144033 -0.1961078 0.03223248 0.7352303 0.18976025 0.059188895 0.364126 -0.23639114 -0.3869526 -0.2447349 -0.7117805 0.28567207 -0.065029405 -0.3692766 -0.18687275 0.3853043 -0.53249735 0.32176712 -0.37088975 -0.021919176
348_2_151 0.009678502 -0.047842447 0.27316585 0.24042277 -0.19547303 -0.08185254 0.33028522 -0.2774494 -0.36818185 0.041342434 -0.104675874 -0.12295071 0.039714135 0.5009959 -0.7402275 0.11142924 0.05631105 0.60415596 0.33460918 -0.66332793 0.53375876 -0.5132269 0.09921731 0.7057008 0.41031796 0.091103286 0.6260995 0.18219195 -0.13926935 -0.3335309 -0.25858203 0.10719674 0.15173565 0.37624148 -0.7881004 0.007034176 0.30482322 -0.1188569 0.04884639 -0.15714261 0.16039196 -0.22126925 0.28527248 -0.14998387 0.543462 -0.09534106 -0.20123212 -0.1546341 0.3024689 0.13549995 -0.1387359 -0.019294124 -0.7513502 0.09326206 -0.46849707 -0.0534147 0.33657894 -0.29050106 -0.7608613 -0.6635834 -0.3094607 0.54742014 0.17236315 -0.3116506
522_2_15 0.033494335 -0.30933347 0.55948913 -0.30287406 0.31084174 0.0043173237 0.18968713 -0.28164223 0.056651127 -0.17309344 -0.23236156 -0.059989683 0.011162499 -0.297946 0.6630622 -0.5748286 0.051053517 0.28221363 0.38520634 0.1835867 0.6317058 0.788647 0.121185236 0.21201847 0.3164824 -0.35043412 0.59897417 -0.074958876 0.28299603 0.046898883 -0.15243436 0.3878121 -0.09756366 0.08351142 -0.4363868 0.08349694 0.39902866 -0.36439818 0.089436755 -0.5481021 -0.0048577655 -0.5096216 -0.20657445 0.37802857 -0.7630006 0.12029816 -0.34756207 -0.18311025 0.56676906 -0.079278976 0.25360674 0.42583945 -0.76459336 0.30257776 -1.0089804 -0.24061199 0.091517456 0.15157565 -0.077201806 0.09507543 -0.71349114 0.34953305 -0.30815098 -0.2150908
348_3_150 0.64115036 -0.009674361 -0.1251582 0.022991009 0.040582344 -0.31732693 0.13381389 -0.60273486 -0.26848698 0.36519098 0.17797297 -0.009162651 0.038829967 0.28646204 -0.5283688 0.1287485 -0.13482752 0.7817066 0.5827483 -0.46591216 0.035946835 0.4078052 -0.43446288 -0.041910976 0.1255542 0.07506598 0.47990206 -0.07875816 -0.25760397 -0.030951759 -0.021891048 -0.3224519 0.584338 -0.120936394 -0.8368076 0.14946724 -0.375924 -0.23984353 0.18427631 0.2212509 -0.19321376 0.15443076 -0.15286413 -0.7286785 0.057641223 -0.1299195 -0.40318978 0.07155544 0.69080603 0.3929987 -0.2498569 0.12329217 -0.344317 -0.293144 -0.042873845 0.12632991 0.23209788 0.30345172 -0.37287673 0.8137151 -0.31259182 0.3358424 0.60154426 -0.1985668
354_3_145 -0.46493018 0.028344948 -0.19571698 -0.48001382 0.12262069 -0.16841313 0.028631965 0.27648467 -0.090441056 0.061769783 -0.387891 -0.22457172 -0.101387985 0.1446313 -0.20548895 -0.7043189 -0.03193089 0.35704374 0.022094816 -0.17642899 0.66240895 0.015054157 -0.40724003 0.34630543 0.44296113 -0.16021778 -0.10615381 -0.21729827 0.28691095 -0.05175226 -0.26193348 0.4295429 -0.25944462 -0.0025542802 -0.8825171 -0.25467277 0.65375024 -0.79834723 -0.1398423 -0.5239298 -0.5009217 0.13026798 -0.16524953 0.35466546 0.47376677 -0.15476507 -0.2119229 0.18252145 -0.2173637 -0.17881769 0.78028035 0.28051507 -0.63056326 -0.021855494 -0.79825747 0.27640814 -0.008584919 -0.41144398 -0.71754295 -0.031114371 0.18633498 0.1456788 -0.26310608 -0.123696886
349_3_152 -0.27706152 0.28124946 0.23476428 0.17861274 -0.6304959 -0.6029029 -0.08544789 -0.5312156 -0.20665553 -0.1579928 0.18548968 0.10743058 0.04827372 -0.08205548 -0.009321089 -0.069654144 0.0034814773 0.5187231 0.66832435 -0.091215484 0.13520451 0.039276853 -0.1677664 0.0787836 0.5451714 -0.1485581 0.42177808 -0.2769166 -0.43317044 -0.051830895 0.08815604 -0.4381975 0.83394176 0.37579858 -0.11171279 0.08182941 0.05225625 0.014439872 0.6988961 -0.002102746 0.6608261 -0.17089833 -0.16401654 0.36323705 0.31113216 -0.26957637 0.026560206 0.058804806 0.053988397 0.83763 0.1590376 -0.15458629 -0.62573034 0.2973144 -0.27975464 -0.20848523 0.6050828 0.24759957 -0.18521701 0.24205083 -0.84945816 0.21123457 -0.16056214 0.03869453
355_3_155 0.18308936 -0.41166618 -0.46485436 -0.38142705 0.7281392 -0.55648845 -0.007985195 -0.14673191 0.36595336 0.4203462 -0.16849478 0.105319396 0.12854964 -0.07605281 -0.046012107 0.022341741 -0.47509894 -0.0146173 0.43678787 -0.0010483359 0.45548257 0.950808 -0.4486885 0.32218042 0.7749128 0.10256455 0.0061841924 0.09548645 -0.033232473 0.013197052 0.31635174 0.17562741 0.20435071 -0.24823618 -0.56864417 0.107109234 -0.24646834 -0.65244436 0.023222547 -0.19306973 -0.4106849 0.3984046 -0.39769334 -0.4095146 -0.2770018 0.006607711 0.009451947 0.4242494 0.3288781 -0.24650912 0.32645166 0.51559514 -0.29590678 -0.2603516 -0.6397491 -0.0550996 -0.04081125 -0.14150962 -0.10939184 0.7744449 -0.3458056 -0.102469414 0.1668938 -0.36105457
350_3_314 0.2122745 -0.044804458 -0.07419651 0.4275776 -0.018327605 -0.5545363 0.012307448 0.13784742 -0.42118442 -0.01621058 0.17390242 0.21390042 -0.08115573 -0.23166203 -0.317678 0.263808 -0.1781608 0.49357924 -0.19666778 -0.08477128 0.5903903 -0.64236575 -0.7312126 -0.22136542 0.033735648 0.2049738 0.35682702 -0.7830012 0.30376348 -0.70604664 -0.30088708 -0.31915662 0.42784595 0.5158624 -0.19538684 0.49146357 -0.12791622 -0.21843301 -0.28455412 -0.014205703 0.32038048 0.19222963 0.26240033 -0.16014986 0.219854 -0.6515497 -0.056193013 -0.016890995 0.20670319 0.635527 -0.3666078 0.040582497 -0.24784255 -0.26748282 -0.4850413 0.41743514 0.5965545 -0.15418717 -0.33401945 0.3405217 -0.1361006 0.27769524 -0.16862552 -0.27516982
355_2_153 0.5244216 -0.48519138 0.3420736 -0.48326415 -0.25574625 -0.012743151 -0.54656893 -0.072913595 0.6243509 -0.21251857 -0.02292073 0.1062032 0.3634841 -0.092601016 0.3302963 -0.58175415 -0.12563492 0.21067183 0.5939152 -0.039704047 0.009466112 0.189105 -0.58000815 0.10128074 0.103301205 -0.36452854 -0.16728504 0.15122154 -0.16413818 0.21692882 0.124436975 0.2381178 0.07832478 0.19033615 -0.90656763 -0.22222176 0.5662564 -0.6153003 -0.19513246 -0.31627086 0.044490483 0.13638431 -0.26331902 -0.4697004 0.19318895 -0.24178493 -0.07122878 -0.07754026 0.8432694 0.7416327 0.5557301 0.14651503 -0.48212752 0.046638515 -0.7290498 0.1623174 -0.5150946 0.14791396 0.09269191 0.36497208 0.22749215 0.19435649 -0.116791606 -0.09402274
351_1_315 0.21489175 -0.38641873 0.35473922 -0.37408003 0.08911257 -0.14311649 -0.054274168 -0.30095577 -0.1471698 -0.16641851 0.20312151 0.1878693 -0.45236197 0.72565204 -0.7291932 0.049990617 -0.46624592 0.54035795 -0.14473622 0.05237047 0.3101604 -0.27828905 -0.3556997 -0.29818964 0.50416565 0.42485124 0.5125868 0.0055000847 0.36957926 0.104405545 -0.07996561 -0.018984104 0.46975964 0.16656551 -0.43432125 0.3090373 -0.3870022 -0.3523966 0.14257127 0.41749716 0.106856875 -0.41526708 -0.42693135 0.15498361 -0.09553467 -0.14720875 -0.28692308 -0.1976665 0.11969517 0.72135866 0.02569433 -0.14382222 -0.41425774 0.2944238 -0.037621863 0.61025757 0.27546155 0.03868313 -0.1195105 -0.45895717 -0.95690346 -0.35555577 0.2556178 -0.15631333
351_3_317 0.02122199 -0.10539974 -0.070723236 0.45820385 0.35916653 -0.4470436 -0.5028249 -0.40014172 0.09274316 0.41334933 0.4952106 0.18171905 0.23834978 -0.31296283 -0.47468904 -0.03585344 -0.4337327 0.78918713 -0.15585077 -0.6149186 -0.22618802 -0.122425996 -0.20681766 0.012159461 0.45552778 0.168663 0.12265389 -0.08771666 -0.24989213 -0.27507177 1.0147172 0.04823339 0.4399584 0.44280118 -0.6976832 -0.03133419 -0.4102146 -0.26782396 0.20028323 -0.20739684 -0.23626465 -0.09821905 -0.20101379 0.04329028 -0.06900372 -0.39917794 0.12460861 -0.030007236 0.14794253 0.37349427 -0.47347686 0.065734886 -0.5660942 0.46056268 0.021717831 0.11491079 0.39998043 -0.028488183 -0.44639838 -0.40176436 -0.121329196 0.27746788 -0.3166056 -0.21008363
355_1_156 -1.0343091 -0.33535796 -0.20613444 -0.23357426 -0.06839743 -0.38966882 -0.05369481 -0.06605355 -0.27964577 -0.07162488 0.31571025 0.3298394 -0.01745814 -0.24374613 0.36497122 -0.22821465 -0.08064792 0.0795805 0.5137506 0.27569258 0.21880388 0.112482324 -0.26406297 0.27687836 0.294715 -0.5328006 -0.20821413 -0.06931387 -0.38750488 0.04735499 -0.07471768 0.33573526 0.2220893 -0.14590682 -0.13802448 0.035955653 0.23946558 -0.211441 -0.13493523 -0.21272713 0.18291579 -0.021411054 -0.4285827 0.22522534 -0.13740465 -0.41948825 0.447213 0.09028983 0.4642473 0.6016874 1.0200499 0.26847553 -0.44615555 -0.0035673503 -0.99334043 -0.1901516 0.4747467 -0.276372 -0.12956442 0.6350259 -0.32588363 -0.380915 -0.37156498 -0.06744439
352_1_318 0.16018327 0.47698113 0.08200814 -0.49484304 -0.08505735 -0.09525885 -0.0009555696 -0.1259366 0.1721024 0.39829588 -0.19293827 -0.03376372 -0.16385786 0.28719905 -0.2903945 0.545675 -0.26421663 0.61986065 0.08600565 -0.1709202 0.3242165 -0.3881466 -0.2803163 0.33364615 -0.2764202 -0.36206383 -0.17268872 -0.48183152 0.072036 0.38413143 -0.009243082 -0.20291182 0.3385693 0.72149247 -0.47010458 -0.12245521 -0.23254453 -0.62667626 0.4060779 -0.19823086 0.43369228 -0.24287362 -0.1897528 -0.32460153 0.039029673 -0.29355624 0.07304796 -0.22991985 0.32474142 0.3918983 -0.36264217 0.3697749 -0.88137335 -0.24279606 0.5542386 -0.022428984 0.8498397 -0.35503396 -0.02677281 -0.013037707 -0.43056774 0.26841998 0.08273691 -0.079125896
356_2_308 0.045955498 -0.055868246 0.086754836 -0.24739611 0.2475795 -0.35023093 0.04454178 0.6100518 -0.09799779 0.0503402 0.08396444 0.09927402 0.10239048 -0.62286407 0.121569276 -0.3183607 -0.3431529 -0.15305701 -0.053650856 0.052849356 0.3968731 -0.06408059 -0.5928413 -0.3702323 0.023051012 -0.02181745 -0.1405743 -0.1978447 0.5106677 -0.7453568 0.0362681 0.018358048 0.20735936 0.6624704 -0.038940236 0.29793283 0.19406125 -0.67831546 -0.6742599 -0.5093586 -0.02626566 0.37200916 0.06932512 -0.3437122 -0.0810573 -0.04864261 -0.046664786 -0.30144367 0.34532815 -0.046026364 0.636079 0.50625724 -0.3379177 -0.001033242 -0.931926 0.2287721 0.001693546 0.02464853 0.08784258 0.54596883 -0.5295432 0.34318945 -0.5991875 -0.3833071
352_3_322 0.124962516 -0.12213868 -0.038979612 -0.10332956 -0.35941154 -0.3851954 -0.08061217 0.12476715 0.2650844 0.48870528 0.2846917 0.24461658 -0.5771896 0.31291682 -0.035368215 -0.20871064 -0.62788844 0.3459343 0.1493258 -0.7440341 0.23118824 -0.3073024 -0.07489613 -0.26926422 0.2418174 -0.12497831 0.31250435 0.109031215 -0.28031358 -0.28917214 -0.30130866 -0.9845091 0.20885079 0.0037896947 -0.26001745 -0.4764454 -0.10868633 0.14722401 0.32194367 -0.035881214 -0.3569378 -0.53617007 -0.05687221 0.16257936 0.625379 -0.18340039 -0.123871215 -0.17739771 0.10443463 0.77269065 -0.46524447 0.5419521 -0.5047059 -0.07219071 -0.19493376 0.36349374 0.11597805 -0.39841476 -0.36130807 0.15522133 -0.4559429 0.33492315 0.06260307 -0.46778995
356_1_309 -0.2070238 -0.2829221 -0.34000877 -0.23853369 0.36399922 -0.29189608 -0.09228577 0.51043236 0.45714155 0.3657608 -0.6242569 0.6762272 -0.062078647 0.10791208 0.28489175 -0.6532359 -0.15443586 0.047428686 -0.3134988 0.26462433 0.21382628 0.17912278 0.10411959 -0.1409687 0.24880998 -0.5275006 0.14582846 -0.19244294 0.05663611 0.46086976 -0.019563116 0.93277836 0.011269981 0.6625367 -0.7576903 0.0074691293 0.3225826 -0.37282914 -0.24653855 -0.20547067 0.23486218 -0.13346577 -0.3845766 -0.031860072 -0.08612772 -0.33379412 -0.16417557 -0.20722845 0.025338614 0.2860961 -0.10577727 0.32532755 -0.51041865 -0.4416465 -0.49900442 0.29720813 0.34245482 -0.21230552 0.30335015 0.5836864 -0.30384448 -0.1658797 -0.03785159 -0.46543774
353_1_323 0.119594574 -0.10687765 0.4079365 0.38311177 -0.09579989 -0.148324 -0.15965213 -0.22087735 0.04475974 0.027213495 -0.092313394 0.05219213 -0.36543873 -0.17397848 -0.43526632 0.67698455 0.1161213 0.6721383 -0.23597026 -0.59699214 0.09906559 0.17530611 -0.013463252 0.6259359 -0.30037013 0.090216175 0.46822605 0.0029600358 -0.31229442 -0.115027264 -0.2441225 0.11183593 0.7734811 0.5947374 0.026013289 0.30638593 0.015800964 -0.069282345 0.21418013 0.5087576 -0.4006399 0.18314615 -0.5783631 0.12211158 0.4261443 -0.67656785 -0.23683241 0.08786509 0.12018201 0.46817148 0.21517229 0.16055872 -0.59131837 0.008245171 0.26600716 0.60127574 -0.1608026 -0.29328412 -0.27753168 0.2876319 -0.64998174 0.35211784 -0.14903139 -0.40872726
357_3_310 0.14999323 -0.43284008 0.2261366 -0.7129132 0.21021535 0.12990469 0.30935654 -0.3430134 0.3554141 -0.09669152 -0.06270981 0.06358259 -0.5401402 0.73649865 -0.27707455 -0.50204813 -0.59948915 0.044202 0.04407748 0.03655702 0.0043091727 0.34517723 -0.4239439 -0.2903891 0.6629914 0.2342642 -0.18963742 -0.17807087 0.2730371 0.07638852 -0.15979445 0.5890925 0.03388789 0.40704778 -0.09223416 -0.16132222 0.053335484 -0.07560466 -0.52613926 0.09391789 -0.11107196 0.0030683763 -0.38860777 -0.03602523 -0.3266271 -0.14282992 0.15461929 -0.108823515 0.25728235 0.34140143 0.7634472 0.56626105 -0.5310638 0.24514703 -0.94762355 0.30243778 -0.06761299 -0.115540944 -0.04507865 -0.14315443 -0.55755484 -0.40795243 -0.29934365 0.19751558
353_2_324 -0.21748899 -0.060563765 -0.19712968 -0.52945316 -0.2898966 -0.30044955 0.07502577 -0.20738502 0.15591311 0.23093057 0.40092736 -0.3645152 0.5136154 -0.09153332 -0.25836918 0.018931676 -0.5509366 0.6702103 0.074510746 -0.17779115 0.5305426 0.017591521 -0.55255777 0.49672368 -0.42562133 0.123147294 0.59541905 -0.14668633 0.5059711 0.062887706 0.028924372 -0.013974254 0.7638481 -0.13106556 -0.5225776 0.0023327526 -0.35622215 0.45955566 -0.2305168 0.23003203 -0.13626616 -0.021586346 0.13462697 0.45214182 0.32075813 -0.50712985 -0.30987185 -0.18893747 -0.08936167 0.4396772 -0.65362066 -0.1606318 -0.8540906 0.06690778 -0.25393036 -0.14628553 0.16582143 -0.06056947 -0.13979909 0.0062641846 -0.54785323 0.40104288 0.095461756 -0.059850115
357_1_312 -0.49946398 -0.25539288 0.64599353 -0.13144954 0.3118986 0.25887635 -0.5428006 -0.14184253 0.09097401 0.43034023 0.049023263 0.39924306 0.116994366 -0.5650352 -0.40545917 -0.58792746 -0.24791563 0.41451865 -0.031453952 -0.41806456 0.3641265 0.44326887 -0.11895514 -0.2667928 -0.27601728 0.38520622 -0.40204293 -0.2885218 -0.029315837 0.16569147 0.6072403 0.5417616 -0.34831727 0.1628094 -0.3583746 0.051972207 0.25201395 -0.26786366 0.13342494 -0.6738628 -0.4287492 0.06766885 -0.65291834 0.05907134 -0.0512526 -0.37512168 -0.12203114 0.30649868 0.36484817 0.11402455 0.28342503 0.6216489 -0.3192906 0.09621855 -0.728698 -0.18954967 -0.08390023 -0.20181097 0.09895203 0.18619974 -0.2510218 -0.3130575 -0.38106498 -0.4487989
358_3_319 -0.34237123 -0.6489612 0.028189693 -0.5828483 0.13254961 0.13803318 0.11976362 0.29275414 0.032037262 -0.23481505 0.020405227 -0.047949746 0.06461105 0.19115889 -0.28898984 -0.3388185 -0.105622455 -0.2386822 0.28069082 -0.51048845 0.27458882 0.38697386 0.3235555 0.1549211 -0.11853897 -0.4984281 0.18038003 -0.082268804 -0.5490907 -0.36095232 -0.4642277 0.35658717 0.033933092 0.62153274 -0.6631242 -0.28166544 -0.1431938 -0.21366945 -0.38627332 -0.6703254 -0.53791946 0.17960021 -0.22451274 -0.06065389 -0.118727334 0.37244397 -0.08019143 0.06166066 0.8023032 0.15329354 0.42205304 0.6852714 -0.7024463 -0.35883328 -0.19041069 -0.10179548 -0.04354135 -0.56798524 0.13219626 0.5383723 -0.30437392 0.07844234 -0.36415297 0.056384493
422_2_328 0.17056306 0.1354726 -0.17071846 -0.036450993 -0.56301296 -1.269546 -0.023171151 -0.37182567 -0.8693219 -0.13392349 0.116052605 0.17222424 -0.20276861 0.09314113 -0.013537059 0.049369205 -0.05602596 0.456781 0.041190106 -0.4348421 0.37292346 -0.28617787 -0.20508116 0.064952716 0.17229606 0.065092064 0.028158845 -0.22912309 0.22747433 -0.10627831 0.10753773 0.044135477 0.2049496 0.36015466 -0.30894843 0.057584032 0.07799772 -0.21571825 0.28040966 0.3214051 0.052346673 -0.25141633 -0.28894123 0.17780796 -0.6343178 -0.38117102 -0.74699944 -0.22763832 0.4286398 0.2513874 -0.45925876 0.5150945 -0.7064219 0.29806516 0.21788989 -0.08204316 -0.4039568 -0.33000606 -0.54270476 -0.016122904 -0.22489172 0.30343175 0.2119628 -0.26279742
437_3_327 -0.38460582 -0.10475125 -0.22019364 -0.19650944 0.2505056 -0.24378838 -0.07871279 0.16642752 -0.20916305 -0.19736545 -0.009977327 0.48728576 0.2300813 0.0099851675 0.17699254 -0.7544733 -0.7055126 0.29222476 0.33639932 -0.6814265 -0.090109974 0.5671998 -0.021166073 0.1378501 0.20693728 -0.11789574 0.17284654 -0.4067735 0.5327631 0.64926857 -0.16604108 0.30271217 0.11474918 0.22934987 0.19487444 -0.26424733 0.46666306 -0.19354886 0.12650709 -0.0013275701 0.06718976 0.74330544 -0.38284835 -0.19731796 0.14469701 0.3821329 0.015582076 0.048108514 0.08452107 0.28524894 0.70340264 0.4067699 -0.5861976 -0.21482864 -0.7388582 -0.22781111 -0.23075368 -0.0812983 0.17963123 0.24308942 -0.47300798 0.79211974 -0.0918488 -0.17479151
423_2_330 0.4135921 0.10069821 0.39109555 0.086976565 -0.32876018 -0.28875014 0.13537598 -0.17886658 -0.15738636 0.4118949 0.5889245 0.32386643 0.094137415 0.2486091 -0.13936678 -0.2332196 -0.21736173 0.44402218 -0.010726731 -0.31005743 0.27131692 0.06789358 0.06848319 0.46412033 -0.054365784 -0.27848703 0.40314445 0.028150406 0.05030692 0.047074806 0.1555061 -0.8716448 0.0798389 0.45258883 -0.50035834 0.47074187 -0.67175335 -0.52323323 0.12769799 0.46560034 0.28276995 0.48314998 -0.44244274 -0.24383402 0.14118248 -0.38757902 -0.35594872 -0.58266217 -0.24628764 0.47881505 -0.004145535 -0.44454023 -0.610155 0.18585289 -0.47076884 -0.04296536 0.19009972 -0.85129225 -0.52250737 0.08184276 -0.04814398 -0.123327 -0.09189479 -0.15624478
437_2_328 -0.3632696 -0.62943405 -0.153774 -0.210058 0.20688105 -0.23829097 -0.19490026 0.016440552 0.30048922 -0.038774375 0.00956744 -0.48963037 -0.12348365 -0.26641694 -0.11548692 -0.19103675 -0.06961375 0.179997 0.15109074 0.3366346 0.28040192 0.36887607 -0.17404826 -0.51911145 -0.02426617 -0.19857718 -0.010779168 0.1951193 0.37052253 0.50785553 -0.5069603 0.3207241 0.045500245 -0.024172781 -0.49369997 -0.031158656 -0.25621182 0.05746462 -0.49037498 -0.21322106 -0.054841083 0.31586877 -0.1118179 -0.18999343 0.30608082 -0.8623877 -0.21287717 0.07355154 0.24959739 -0.16936965 0.10901132 0.5657146 -0.9876076 -0.3167679 -1.2245886 -0.5820192 -0.19458969 -0.16241655 0.27881372 0.16113715 -0.06138095 0.3585333 -0.473077 -0.087403014
423_3_331 0.1232838 0.027992196 0.059921052 -0.6219062 -0.1774797 -0.13246429 0.50781286 0.17474766 -0.26910824 0.07509134 -0.1669016 0.56975424 -0.15634695 -0.25398883 -0.47038183 0.54090816 0.16270474 1.0741032 -0.055466924 -0.13662767 0.45340952 -0.2941818 -0.047641132 -0.070134744 0.61647594 0.066087365 -0.003981909 0.14347994 -0.045747902 -0.15428966 0.40140814 -0.47901115 1.1631478 -0.08027937 -0.5293413 -0.12005109 0.25848302 -0.18740694 0.38554528 0.09247871 -0.35818225 0.2693231 -0.15118875 -0.10843924 -0.08651551 -0.45220736 -0.09980691 -0.59215283 0.17806868 0.7022217 -0.31143627 -0.22178617 -0.13525368 -0.16042565 -0.23656295 -0.07751601 -0.019900678 -0.4233473 -0.034617364 -0.14968261 -0.334823 0.533169 -0.1776165 0.02284531
424_2_333 0.2818851 0.06578748 -0.5484517 -0.11086168 -0.5591088 0.071997985 -0.32472467 -0.7774103 -0.3606254 0.05303113 0.041049927 0.37970486 0.3206018 0.07401782 -0.17472638 0.16101813 -0.018475091 0.76423347 -0.15606625 -0.17850482 0.2736373 -0.6079141 0.19773595 0.3941313 0.31919095 0.28649667 0.70313066 0.13499156 0.19131489 0.21982583 0.30571687 -0.651199 0.42790794 0.5200864 0.09275977 -0.40390342 -0.30411294 -0.48627225 -0.30862555 -0.20660578 -0.026708025 -0.34070042 -0.079222694 -0.15514752 0.18901375 -0.59835106 -0.06104896 0.07427448 0.18070655 0.112706505 -0.19669442 0.15152964 -0.66920334 -0.536697 -0.25605062 0.32154435 -0.122293495 0.053510685 -0.4355893 0.2798485 -0.7124103 -0.34523177 -0.24654368 -0.26291707
438_2_330 0.08544147 -0.063866846 -0.051599123 -0.4221457 -0.094150804 -0.30218536 -0.62554 0.31409746 -0.2607243 -0.12274669 0.29507262 0.07099443 0.017434072 0.3671374 0.89521813 0.0007770187 -0.10144966 0.03802977 -0.07073617 -0.38620192 0.5800424 0.049390707 -0.4970356 0.0017966536 0.3282179 -0.103324324 -0.04970627 -0.025687432 -0.11803258 0.16936909 0.048583634 0.5307327 0.112135455 0.57763875 -0.4000799 0.29167867 0.5414998 0.038491286 0.12091941 0.018925335 -0.7506179 -0.17302935 -0.4847128 -0.4085815 -0.2702272 0.15061828 -0.36158326 0.22306384 -0.011362791 -0.2982913 0.35414803 0.8243033 -0.6146747 -0.076677434 -1.1264778 -0.22021672 0.18943574 -0.25493613 0.44246182 0.27747497 0.04929659 -0.14185597 -0.24796844 0.19421285
438_1_331 -0.07038639 -0.21764752 0.17983834 0.28491864 0.09525754 -0.14234522 0.89063364 0.22678554 -0.22442326 0.7438804 0.1319998 0.025577063 -0.06097594 -0.0072477884 0.2344542 -0.27409688 -0.3417451 0.10871542 0.41615108 -0.29643288 0.68114316 0.21212494 -0.37882897 0.036069382 0.3203299 -0.2994244 0.24583764 0.09962687 0.101456076 0.36374378 0.25719386 0.40946636 -0.11751468 0.3335541 -0.5413736 -0.292903 0.1315241 -0.12557942 -0.29608223 -0.74625295 -0.31579804 -0.1513739 -0.85136795 -0.35602123 -0.03838574 -0.41208693 0.12649511 -0.42147356 0.13203835 0.06660281 0.9129508 0.071809076 -0.39726987 -0.5882562 -0.6297894 0.06325819 -0.57127804 -0.03064638 0.4826003 0.14426024 -0.22073178 0.07349951 -0.286496 0.14710231
424_3_334 0.1608932 0.117448516 -0.5548617 0.15428421 -0.08681296 -0.41008794 -0.6317965 -0.23951252 0.12458914 0.7312464 -0.56383365 -0.077147275 -0.163687 -0.15788984 -0.67073077 0.4671326 -0.5211367 0.7580199 0.25864294 -0.25946668 -0.059912287 -0.5940927 -0.09969354 0.1726241 -0.09442064 -0.27373946 0.5722319 -0.60024786 -0.23351608 -0.34088117 -0.05582835 -0.49611515 0.4787093 0.15029752 -0.3924489 0.3263859 -0.124258086 -0.06603827 0.09210009 0.0032175106 0.20244318 -0.34189704 -0.29773366 0.037276827 -0.082494706 -0.16594909 -0.6266339 -0.23268376 0.29071972 0.43319836 0.1163323 -0.09536565 -0.28331947 0.2864662 -0.6988423 -0.0038638788 -0.3420652 -0.6043811 0.009066864 -0.23332474 -0.6370019 0.031665765 0.31648538 0.2645537
426_1_336 0.66383475 -0.34474984 0.22829184 0.16642334 -0.21591309 -0.10966032 -0.52355254 -0.107900865 -0.22528014 0.5854697 0.33646423 -0.3050467 -0.24881376 -0.34400317 -0.29249635 -0.034856603 -0.27421454 0.40161088 0.5499884 -0.23100105 0.3881641 -0.68214107 -0.064021535 0.11748307 0.73808616 0.49589217 0.31965947 -0.26269197 -0.11996609 0.37183654 0.042651612 0.07723107 0.52357095 0.13741243 -0.3035515 -0.30122 -0.024558194 0.03365109 -0.07674547 0.4721631 0.14556275 0.14775705 -0.05240909 0.1492305 0.22419617 -0.43365487 -0.7681616 -0.56684923 0.24667557 0.1336478 -0.057725653 0.048689153 -0.32755148 -0.10847976 0.35438254 -0.08648974 0.736727 -0.83441216 -0.25910217 0.43070015 -0.66477764 0.28086117 -0.3835687 -0.08951107
439_2_333 -0.31348872 -0.22601728 0.24689442 -0.08180269 0.40463024 0.14924137 -0.10596693 0.3419988 0.24504276 0.02343652 0.046984553 -0.40565947 0.21833493 0.28076926 0.17631161 -0.520331 -0.06930618 -0.19887201 -0.32774734 -0.5933753 0.5600243 0.035421003 0.04899955 0.17623897 0.6275834 0.22306806 -0.80067164 0.036085844 -0.39299348 0.24994917 -0.19078954 0.0607392 0.42256433 0.20768218 -0.3004222 -0.06925362 0.43224135 -0.814361 -0.56990814 -0.18398398 0.21376269 0.14731589 -0.6041134 0.19882041 -0.3018029 -0.13771625 -0.23803878 0.116553 0.3533959 0.1901847 0.12238799 -0.11599552 -0.33741802 -0.421547 -1.1793338 -0.45775524 -0.27372557 -0.17971577 0.20518576 0.35772404 -0.7939232 0.17624523 0.02856816 -0.19418879
439_1_334 0.48343378 -0.5168901 -0.10299674 -0.026466457 0.89315856 -0.11152943 -0.069688514 -0.19120765 -0.29128373 0.19557844 -0.550071 -0.17383577 0.2067411 0.15026852 0.32614785 -0.6107958 -0.014219547 0.24211916 0.038744774 0.03055119 -0.023981048 -0.32167986 -0.5467748 -0.28044692 0.12528528 -0.4222339 -0.036589853 -0.061381746 -0.43928248 0.19339675 0.2785508 0.24908644 0.13646632 0.49256444 -0.20656572 -0.18824942 -0.09262684 0.067128874 0.031217292 -0.7826419 -0.29807144 0.7012014 -0.2031371 0.41111723 -0.22932589 0.25361794 -0.062937394 0.36954138 -0.15000136 0.5034121 0.6348062 0.17130496 -0.9723765 0.00055008614 -0.99850994 -0.2703743 -0.11013625 -0.31989524 0.18386407 0.4060739 -0.2440073 -0.11195478 -0.51287556 -0.30341434
429_2_100 0.08793204 -0.011213457 -0.4140824 0.19282305 -0.21399094 0.06792218 0.16637418 -0.40964374 0.15234335 0.51197475 0.60786766 0.5207443 -0.07636449 -0.28672302 0.19206029 0.2306937 0.2909183 0.42486888 0.34022635 -0.10455295 0.100988284 -0.2748151 -0.2265261 0.07763871 0.19509472 0.54001606 -0.067721084 -0.37469667 -0.12558152 0.099786006 -0.33227497 -0.07110624 0.8462332 0.37494972 -0.65728205 0.6830198 -0.5281202 -0.37666464 0.32063165 -0.028585037 -0.0049407356 0.12750788 -0.09093496 0.31484473 0.5205769 0.104164116 -0.51359886 -0.56270564 0.12921421 0.56376153 -0.38848403 0.6610531 -0.7042234 -0.38092902 -0.13233787 0.14640562 -0.25312424 -0.1688874 -0.6166665 -0.49872777 -0.60212165 -0.04308304 0.049195107 -0.011541737
441_3_336 0.39926317 -0.027943714 -0.1843279 0.31422582 0.6464527 -0.05470273 0.2204379 0.020806314 0.42235038 -0.42649606 0.045084752 0.69707304 0.054431453 0.4116654 0.257592 -0.5354339 -0.18280485 -0.2323904 0.20284273 -0.11832598 0.67767954 0.12442922 -0.2870849 -0.039046787 -0.18590029 -0.15463243 0.03369473 -0.39855522 0.2013275 0.16706674 -0.108768255 0.5420873 0.3510803 -0.10917668 -0.31905645 -0.29891044 0.36318836 -0.5744913 -0.23197442 -0.46733078 -0.3488355 -0.04415872 -0.24354553 -0.3711043 0.40965632 -0.5207478 -0.4326253 0.4469561 0.39560318 0.14921534 0.5752817 0.42245814 -0.1814095 0.21796335 -0.57201767 -0.7903494 0.081154935 -0.74539846 0.23172373 0.25710472 -0.6725943 -0.1412683 -0.7701845 0.17280263
429_3_100 0.10271849 -0.7537583 -0.22465171 -0.050573222 -0.17553926 -0.0894182 0.3022592 -0.47100452 0.183158 0.20388755 0.25988257 -0.03330683 0.13582271 0.2539638 -0.3244957 0.15377256 0.019282289 0.64819247 0.7986862 -0.14151311 0.031922948 -0.18639393 -0.10324367 -0.0039001738 0.05148866 -0.032006685 0.19009535 -0.6371157 0.21649753 -0.7453231 0.5942518 -0.5088517 0.72455853 0.53803056 0.18225448 -0.0048875306 0.41658577 -0.5896498 0.1730007 0.45863333 -0.14687991 -0.30046186 -0.5810092 0.18041803 0.26675606 -0.5597969 -0.6442311 -0.32283717 -0.11717856 0.12096865 -0.35100493 0.005961666 -0.82543623 -0.18980598 -0.082153805 0.04089967 0.40695786 -0.47578534 0.05833114 -0.1277779 -0.09825811 0.013218419 0.38719523 -0.69475347
426_3_338 0.14600039 -0.013345705 -0.12594162 -0.27255526 -0.17034677 -0.5710847 -0.08063752 -0.6571083 0.16669464 0.3290791 0.23479325 0.40935495 -0.66126233 -0.06680334 0.10827423 0.2078659 -0.061104663 1.3526688 0.045924444 -0.62567115 0.4534069 -0.13209337 -0.21191536 0.19856423 0.1855801 0.42837036 0.48925304 -0.036840364 -0.15036675 -0.27482548 -0.16539785 -0.6948679 0.49623585 0.11974777 -0.68303984 0.24662417 0.28095746 -0.05046349 -0.8662384 -0.20585746 0.5382111 0.30654252 -0.47867572 0.04808367 0.15144874 -0.036674432 -0.3346114 0.045473304 -0.11704661 0.21635932 -0.1792195 0.076733775 -0.6212051 0.32321438 0.5076076 -0.2072916 0.24384874 -0.41108343 0.27979878 -0.071046904 -0.3209014 -0.117290586 -0.12703905 -0.41345918
444_3_345 -0.17611936 -0.44270366 -0.13932663 -0.19919908 0.080729425 0.4780426 0.2226728 0.45604587 -0.04818996 0.32596537 0.047802605 -0.06581914 -0.26785538 -0.47321165 -0.066286735 -0.70902675 0.07380118 0.23413022 -0.058133975 -0.15674405 0.54545724 0.55556655 -0.85096323 -0.14433716 0.4792421 -0.5112863 0.18758817 0.25770786 -0.18907958 0.48175052 0.43226698 0.38672155 -0.12141349 0.4126411 0.30678287 0.20396787 0.26625314 -0.6156521 -0.51811725 -0.074025765 0.08639119 -0.1988365 -0.072071314 -0.41255876 0.09670958 0.20345439 -0.41269577 0.8444811 0.23854661 0.5880845 0.31925765 0.59982234 -0.82301974 -0.08456903 -0.60767376 -0.20497176 -0.14173521 -0.7431053 0.22902448 0.21030706 -0.39631853 0.11453309 -0.04700283 0.32928464
441_1_338 -0.16568916 -0.273658 0.49270642 -0.39416316 0.7211341 -0.4869436 0.4237716 0.6014711 0.15915398 0.057829387 -0.07779779 -0.15961686 0.031990465 -0.094192415 0.45151103 -0.64698154 -0.4399483 0.5563768 0.13060234 -0.45951238 -0.2774837 -0.029246438 -0.27533928 0.23262863 0.39862388 -0.22487597 0.2551775 -0.17001703 0.010508798 0.2914393 -0.07973297 0.022365227 -0.17556457 0.4515504 -0.2046697 0.32685822 0.5059808 -0.36419427 0.03017076 -0.07828093 -0.37683302 0.41854465 0.037977573 0.15652584 0.2670749 -0.54408807 -0.29577947 0.379135 0.93655163 0.010542152 0.38782752 0.52518475 -0.46045327 -0.75063884 -0.69290894 -0.39801103 -0.12883626 0.00071719836 0.38469043 0.0434435 -0.4271768 -0.9343357 -0.42710412 0.20951068
427_2_340 0.6615539 -0.20905273 -0.29926085 -0.5246639 -0.25658625 -0.36431476 -0.094829746 0.33438525 -0.26825634 0.44851336 0.36260772 0.47104573 -0.34068316 -0.25851274 -0.5794828 0.07292984 -0.5665451 0.3595802 0.39352062 0.14770766 0.26637927 -0.22396287 -0.16884652 0.35067615 -0.3289043 0.41433775 0.5696597 -0.3137628 -0.86317843 0.00014995145 -0.15710558 -0.44820845 0.49152955 0.42855632 -0.2823857 0.08427977 0.315329 -0.31215495 -0.012504065 0.27295583 -0.07427885 -0.071765475 -0.73428804 -0.11182763 -0.20088638 -0.49816018 -0.41427886 0.15799421 -0.18071043 0.33968678 -0.4666543 -0.16775966 -0.78704983 -0.23815064 -0.10669818 -0.32853854 0.16895646 0.32354543 -0.86264265 -0.49439478 -0.56102806 0.19794548 -0.46478754 -0.18549626
442_2_340 -0.34677395 -0.57979 0.24620996 -0.63959765 0.75780296 0.13503993 -0.12869821 0.49197975 -0.5157472 0.20502965 -0.47595012 0.03821511 -0.08497419 0.45341644 0.42366385 -0.5058018 0.040506106 -0.19586036 0.36862573 -0.2582554 -0.28163856 0.34452987 -0.3408649 0.3454748 0.2702841 0.20778932 0.010589279 -0.28935465 0.28759256 0.45087543 0.28045171 -0.15255058 0.6124254 0.46448126 -0.5166495 0.41756344 -0.105602704 0.011752791 -0.5705989 -0.5856788 0.12909554 -0.59275 -0.67040324 -0.27539402 0.2868987 -0.42380595 -0.42336637 0.36760196 0.13055298 0.40224376 0.65687937 0.69974655 -0.19619845 -0.16851927 -0.6649922 -0.43164414 -0.24490097 -0.33831787 0.024516923 0.35419264 -0.028079718 0.33383045 -0.68885803 -0.22728078
428_1_342 0.23763406 0.39418322 -0.20506683 -0.615873 -0.021792354 -0.017682156 -0.55622125 -0.06769871 0.08071746 0.43637854 0.124856 -0.023612795 0.26754317 0.09462631 0.22155523 0.3016678 0.0057339626 0.51448864 0.6139612 -0.8641077 0.6778911 -0.15490334 0.053142786 -0.64419174 0.39736888 -0.13915794 0.8848329 -0.1795874 0.02477471 -0.12871563 0.053952172 -0.18979737 0.73195875 0.4597697 0.0075320364 0.36863816 -0.13426274 -0.06274857 -0.1722264 -0.031734645 -0.077479295 0.41368186 -0.42475095 0.05896404 -0.08981953 -1.1145716 -0.25710627 -0.1478604 0.28245342 0.64765066 -0.060845025 0.018637594 -0.42673165 -0.034163956 0.23961711 -0.017330159 0.11108728 -0.566962 -1.0133687 -0.53493434 -0.4630841 -0.021187428 0.4109751 -0.35911798
428_2_343 0.42186677 -0.24266054 0.11878433 -0.4015032 -0.4088673 -1.0291246 0.05564978 -0.44940013 -0.0026517187 0.008473112 -0.1855257 -0.38936594 0.26013547 -0.27985016 0.29590243 -0.075031355 -0.28137884 0.94368297 -0.16001227 -0.049379278 0.114719816 -0.15664141 0.084284455 -0.06460675 -0.11773676 0.8411501 0.54634583 -0.59199274 -0.5764796 0.0126793925 0.31792217 -0.21056697 0.56154525 0.05343032 -0.16456132 0.27844933 -0.13258427 -0.4609313 -0.1594352 0.08829446 -0.2324769 -0.41878206 -0.5125576 -0.48479125 0.5520962 -0.10648462 0.0666063 -0.48622754 0.100466594 0.641186 -0.09384962 0.048564315 -0.5605781 -0.39462194 -0.060605 0.0646523 0.187575 -1.1395191 -0.5436796 -0.31663796 -0.68650573 0.24146752 0.18797846 -0.17880741
443_3_342 0.25032508 0.2663044 -0.5404188 0.020561792 0.38845223 -0.22104801 -0.092804596 0.6843161 0.14568894 -0.20208986 0.28820068 -0.3315911 -0.13589074 0.28013116 -0.14775445 -0.5064352 0.2226607 0.28584152 0.059694085 0.156702 0.13860159 0.71835303 -0.539153 0.14442779 -0.019673634 0.23898122 0.12251738 0.42781958 0.25338444 0.3195648 0.22909735 0.17810895 -0.13892204 0.79319626 -0.25761423 -0.23920554 0.3093271 0.08351075 -0.27693623 -0.59078693 -0.23177478 0.12115063 -0.96868193 0.42706585 0.17202792 0.050885625 -0.26431346 0.04980919 0.92401105 0.5979109 0.66614336 0.5179301 -0.15142004 -0.517911 -1.0947626 -0.4766886 0.31798506 -0.51241463 0.3736042 -0.00027443442 -0.41581696 -0.03988273 -0.14373633 -0.43642998
428_3_344 0.26239568 -0.47508234 -0.30468214 -0.44497928 -0.07729495 -0.45008054 0.0637654 -0.5497263 -0.13593188 0.07914075 -0.16144538 0.054772645 -0.1346673 -0.8721947 0.15539096 0.22338788 -0.53349686 0.5738301 0.022973683 -0.5353647 0.3958287 -0.3746208 -0.028203424 0.43612605 0.18655737 0.11911523 0.05078748 0.07511188 0.21789049 -0.08612287 -0.08019962 -0.53695166 0.75255793 0.674812 -0.107575946 -0.3020996 -0.23295899 -0.23169197 -0.042927306 -0.16715488 -0.14192271 0.26099816 -0.9152445 -0.33711773 0.64785266 -0.42253095 -1.3983927 -0.350383 0.33342183 0.78591955 -0.1624331 0.03303362 -0.39909008 0.35118255 -0.14462715 0.19724274 0.76960844 0.053930927 -0.7087327 -0.35568693 -0.27834836 -0.057110246 0.40198717 0.18345502
443_2_343 -0.39481893 0.06320506 -0.019334003 -0.33558992 0.23308039 0.18956861 0.17580204 -0.32305694 -0.017557474 -0.117606185 -0.34032395 0.37175217 -0.0971595 0.25336504 0.36181962 -0.38052574 -0.7827959 -0.34518632 -0.09223737 -0.32945606 -0.1602456 0.17733118 -1.06037 -0.44429037 0.3251491 -0.20978674 0.03497875 0.34707704 -0.22281753 0.2017814 0.13798667 0.4647908 -0.049629863 0.20743737 -0.08798904 0.54556966 0.33580208 -0.19516185 -0.21444343 -0.6172359 -0.23808832 0.081410594 -0.8923548 0.10178966 0.3607245 -0.11954414 -0.6644955 0.1565953 0.99909127 -0.23379807 0.24430965 -0.33671042 -0.98870367 -0.7087676 -0.748929 -0.27620667 0.0074277585 -0.6419863 0.17401122 0.3050544 -0.3373073 0.36346105 -0.7278173 -0.1594443
429_1_345 0.3566522 -0.18967347 -0.51483494 -0.71769875 -0.120814644 -0.28943458 0.12065071 -0.052896105 0.25617036 0.0093271965 0.5443539 0.31376362 -0.035273496 -0.15768997 -0.4409267 -0.050307713 -0.112959936 1.0038921 0.30631274 -0.6701675 -0.06983756 -0.21361624 -0.36119068 0.4719935 0.2122551 0.8154044 0.55220866 -0.29563627 -0.53263503 0.2979547 -0.16211031 -0.21972166 0.4804076 0.40580848 0.15724121 0.34759483 0.013550321 -0.1970913 0.523564 -0.8884916 0.2782357 -0.069728464 -0.08937014 -0.112098485 -0.15623568 -1.0928122 -0.8161909 -0.6971186 -0.1672336 0.21122901 -0.27338463 -0.04556269 -0.64222336 0.42612523 -0.23006396 0.506146 0.0915841 -0.8351537 -0.22852896 0.29691905 -0.43746886 0.07865309 0.25565344 -0.2554723
450_2_359 -0.63033074 0.014091579 0.6684935 -0.2883495 0.82056713 -0.3262968 0.3193204 0.11636108 0.5954499 -0.1201365 0.38824537 0.19281867 0.49914405 0.37375823 0.05861295 -0.2762494 -0.40550804 0.4718402 0.12321064 0.27633986 0.3552498 -0.2685878 -0.52351063 -0.35083947 0.14329335 -0.22493811 0.39721027 0.25715312 -0.4852505 0.38899177 0.22566418 0.3819838 0.29582486 0.6006446 -0.1323183 -0.38109046 0.18947995 -0.15342976 -0.45745483 -0.33562532 0.22825497 0.13693231 -0.73291934 -0.03137754 -0.065826684 0.1401334 -1.1452206 0.5429042 0.08837528 0.13604942 0.7330414 1.0039672 -0.12778553 -0.6567378 -0.95507574 -0.17755115 -0.2880836 -0.42537042 -0.09344036 0.3661543 -0.1537757 0.3112545 -0.3693382 -0.02182509
430_1_346 0.58387965 0.14149629 0.15229055 -0.63117373 -0.4342774 -0.463087 -0.48126256 -0.4784187 -0.588085 0.22161958 0.24106294 0.5048967 -0.56238234 0.017207269 -0.20443247 0.22540626 -0.82450163 0.8854851 0.6204503 -0.07744466 0.4659172 0.16793236 0.25201082 0.5185798 0.21507515 -0.093839735 0.19787285 -0.6518273 -0.62222993 0.008347953 0.5331796 0.011708148 0.71927065 0.3245486 0.07272326 0.23857787 -0.40105504 -0.6079599 -0.60918516 -0.44409105 -0.24684466 0.34849823 -0.0016019105 0.51677823 0.66447085 -0.65785456 -0.88050467 -0.39728457 0.03834822 0.668532 -0.45922148 0.22255214 -0.31727085 -0.24920507 -0.31398463 0.24081509 0.07962851 -0.44606268 0.11954897 -0.46785927 -0.40711653 0.19047455 0.30350828 -0.47325397
443_1_344 -0.3018936 -0.21797442 -0.06197225 0.009872426 0.3965856 -0.056697883 0.016378716 0.0102245975 -0.29987285 0.09125559 -0.28279647 -0.09107219 0.36402652 0.16536812 0.19387256 -1.1167545 -0.30075732 0.013778974 -0.0806775 -0.3997692 0.31551403 0.81398773 -0.9719924 -0.028942995 -0.09551478 -0.37504318 -0.15319209 0.20836878 -0.4697456 0.36764258 -0.18945847 -0.024097523 0.93627965 0.23893946 -0.36449257 -0.3266205 0.31204125 -0.041490916 -0.11015261 -0.30987135 0.048406642 0.10897938 -0.08033729 -0.5332396 -0.36163256 -0.4361618 -0.74482197 0.19703223 0.44850326 0.047618397 0.7436805 0.6884064 -0.3814331 -0.7445128 -0.82782674 0.22759163 0.18008494 -0.61153054 0.6057292 -0.7450115 -0.5272363 -0.30626076 -0.71996135 -0.55937314
445_3_346 -0.47567096 0.21249907 0.2276411 -0.42083254 1.2510726 -0.44764423 -0.18379982 0.18813328 -0.08054176 -0.12719071 -0.50979215 0.4713817 0.21678945 0.097683445 0.17353441 -0.47975683 0.55011165 0.073634736 0.77207714 -0.6602852 0.2554817 0.4484568 -1.1781629 0.04506758 0.14212123 0.12458961 -0.07462156 0.13121377 -0.3857689 -0.0005458478 0.038974088 0.23423618 -0.54565173 0.5246147 -0.060342602 -0.5707837 -0.06940698 -0.2393809 -0.647378 0.082482636 -0.3104425 -0.12545396 -0.4955894 -0.24169904 0.27772456 -0.33340567 -0.6050633 -0.22945821 0.11278537 0.59765124 0.18355039 0.32517648 -0.8732809 -0.5762746 -1.0975028 -0.23947455 -0.103658825 -0.35922486 0.59482116 0.12118558 -0.78783786 0.015448522 -0.5471637 0.32891685
430_3_348 0.30087152 0.4631792 0.1924235 -0.3266697 0.14229512 -0.112657055 -0.46258488 -0.21462482 -0.17996486 0.6128865 0.43315408 0.39191967 -0.31678236 -0.21882349 0.016872255 -0.16888775 -0.3284919 0.80900013 -0.019014617 0.26106367 -0.1003386 -0.13506399 0.00017166637 0.6510062 0.5005299 0.569094 0.52592367 -0.72811556 0.020775978 -0.5759378 -0.104275145 -0.3348339 1.1360681 -0.26067653 0.12643996 -0.42310876 0.26745728 -0.087135576 -0.23344867 -0.25726876 -8.234241e-05 0.15287796 -0.6830693 -0.16567206 -0.033887725 -0.5782352 -0.71142775 -0.5090248 0.3696 0.89220977 0.047653712 0.04834458 -1.7850741 -0.20075616 0.0038300734 0.19464327 0.12140603 -0.69984484 -0.6728005 -0.23765807 -0.06710309 -0.16377969 0.5237389 -0.015507919
445_1_348 -0.5944146 -0.35230723 -0.14165172 -0.010429395 0.9537215 -0.63465977 -0.031103104 -0.18513234 -0.3096632 0.36581856 -0.054817304 -0.05732467 0.16432351 0.9171819 0.06305077 -1.2017133 0.024657907 0.15474215 0.07984279 0.30737445 0.44881046 0.3524298 -0.5318905 -0.060859676 0.1548063 -0.09060616 -0.098157324 0.4367793 -0.36955997 0.38563585 0.3409653 -0.03711462 0.33300704 0.7871188 0.18367396 0.430177 1.0352024 -0.25895974 -0.31781435 -0.7041466 -0.4655987 0.4983881 -0.77796954 -0.24084686 0.19385454 -0.60503715 -0.48669305 -0.0068852664 0.8413976 0.39265668 -0.009724724 1.0003613 -0.5876462 -0.16137546 -0.5433015 -0.12215319 -0.2743195 -0.34950405 0.35469922 0.16041616 -0.6507885 0.40010667 -0.59213567 0.77777207
431_1_349 0.5552773 0.22951804 -0.72339076 -0.9168217 0.16816598 -0.52783203 0.07066004 -1.0234807 0.33646637 0.9183313 0.20391685 -0.22984205 -0.5609982 -0.15173392 0.25986162 0.07920909 -0.5696824 0.7749233 0.10224803 -0.3215673 0.7831561 0.15444991 0.2595067 0.37743652 0.43956757 0.72377443 0.44416153 -0.2992138 -0.31220397 -0.40948159 0.12417157 0.0017743123 0.6910685 0.9024383 -0.23693582 0.25890553 0.24126582 -0.35412127 0.16771686 0.2070135 -0.052085873 -0.4211139 0.004531758 0.05111777 0.09579586 -0.85616547 -1.0443937 -0.293408 -0.033186495 1.2788684 0.24513361 -0.25807744 -0.6651358 -0.44294167 -0.14473468 0.06735037 0.05496318 -0.5306925 -0.45893052 -0.077778995 0.121763945 -0.089713246 -0.4345173 -0.084791765
402_1_438 -0.5511114 -0.73165596 0.57929593 1.6705185 -2.3777015 0.099789925 -0.38050723 0.7267586 -0.2533132 0.7030303 1.2137393 -1.2630454 0.6155145 0.016410198 -0.52879906 3.2807145 -1.4797674 2.328454 0.24056527 0.7012495 0.27042428 1.1479025 2.188652 -0.61914355 1.1593223 -0.9734882 -1.0756589 -1.7121108 1.0846947 -0.79188913 -1.8045813 0.672489 -0.5686346 0.010670151 -3.384157 0.34319875 0.32314584 -1.1256654 1.111612 0.48777 -0.26560014 -0.9407004 1.1016341 -0.00033653647 -0.1732403 0.41629648 1.6484197 0.75722516 0.45822695 0.35123616 -0.7745514 -0.82147795 -1.3864989 3.2140155 -0.35684144 2.0437305 0.6572052 0.64402616 -1.138319 2.1558511 -0.89292574 -0.04289309 -0.06530262 -1.4967772
446_3_349 -0.18411668 -0.12497399 0.06886323 -0.25724536 0.258041 -0.66819644 0.5455213 -0.21384089 -0.14074868 0.4518537 -0.17146724 0.27291948 0.68129843 0.070030935 -0.14403667 -0.5407253 0.3907543 -0.6885293 -0.31074482 -0.31222987 0.38227382 0.17124155 -1.2581137 -0.011137533 0.63584673 0.016944937 0.301157 -1.0138693 -0.32834673 0.9069314 -0.22814183 -0.048211493 -0.06409277 0.7138396 -0.120024696 -0.16574097 0.40303645 -0.11047389 -0.68187976 -0.2644719 -0.2661506 0.18258797 -0.74881077 0.3880024 0.004446579 -0.4231215 -0.827446 0.4396429 1.1270813 0.49438652 0.48135725 1.027341 -0.6030321 -0.25050518 -0.933345 -0.39922938 -0.21734077 -0.46101996 0.6459931 0.048512924 -0.0455334 0.22324614 -0.5137126 -0.29054046
431_3_350 -0.060875826 -0.069349505 -0.26309502 -1.039492 -0.30754274 -0.8986101 -0.15927576 -0.6221162 -0.052543994 0.5547012 0.4809476 0.20553851 0.08521029 -0.77101445 -1.0658047 -0.13860509 -0.5296482 0.47391498 0.8908884 -0.8931096 0.38566434 -0.4022642 0.55956906 0.1955181 -0.12337076 0.46932867 0.331076 -0.24477945 0.026009386 -0.29495782 -0.07392898 -0.079165176 0.9824681 0.29539022 0.27937448 0.35055044 0.0728681 -0.4068487 -0.34765345 -0.390209 0.071583435 0.2536394 -0.86605996 -0.3224973 0.037961997 -0.1440817 -0.57659215 -0.7944349 0.3339896 1.2801108 -0.11266711 0.20155571 -0.8500158 -0.38892964 0.019206444 0.31172186 0.05892722 -0.6971967 -0.30814657 -0.09142382 -0.38261947 -0.3366089 -0.47903076 -0.5440245
402_3_443 -0.04835295 -0.3619887 0.04743113 0.5978958 -1.4570496 -0.5684658 0.05672361 0.27424222 -0.45396096 0.034681406 1.2460078 0.13055576 0.7154374 -0.0031354688 -0.4044322 3.3308933 -0.19863188 1.832371 0.28251567 0.53757817 0.09114355 1.2128488 1.1410248 -0.79853284 1.1997769 -0.7688859 -0.6595156 -0.9023347 1.0681258 -0.24604146 -1.3687391 0.45732266 -1.3361049 0.3733635 -2.5898664 -1.232495 0.304113 -1.0847425 0.53960633 0.590987 -1.033662 -0.65311426 1.1163777 -0.0828571 0.14713 0.63243234 1.9966804 0.31853223 -0.18159056 0.49830636 -0.48052305 -0.99691856 -2.1970549 2.2307632 -0.6356969 1.3703061 1.0782565 0.9979999 -0.9221029 1.739426 -1.0485266 -0.53425133 -0.20681359 -1.7506567
446_1_350 -0.15757485 -0.18104987 0.47333202 -0.69357085 1.1038176 -0.4698812 0.26085883 -0.053119075 -0.097487696 -0.20020011 0.16181141 0.77027345 0.07918572 0.059429996 -0.6135233 -0.53387576 0.3122058 -0.34186238 -0.43621612 -0.29350176 0.30859587 0.36696976 -0.5915682 -0.6982974 0.5654412 -0.28546908 0.13194227 0.4353616 -0.35091358 0.79152626 0.2838589 -0.54116243 0.50920516 0.45270288 -0.5446252 0.36599445 0.94803625 0.037416723 -0.29088622 -0.545013 -0.7630433 -0.08646915 -0.3793039 -0.112989865 0.31147847 -0.40869626 -0.81907684 0.07748656 0.18824585 0.84110206 1.2317482 0.5703335 -0.9023748 -1.0276108 -0.8850282 -0.61891073 0.3021158 -0.28578728 0.6665815 0.0027615693 -0.75488347 0.2832359 -0.21191037 -0.01059216
433_1_353 0.7039567 -0.41684842 -0.1310012 -0.7568554 -0.49903795 -1.0236019 -0.5215059 -0.22916609 0.28143182 1.0344694 -0.16393483 0.5263968 -0.06233562 -0.07337722 -0.105771214 -0.009402362 0.3193926 0.8176304 -0.015506746 -0.14316109 0.6016762 -0.29272527 0.036563832 0.4442921 0.16377583 0.16319123 0.47085652 -0.19202013 -0.21733645 -0.37296695 0.38089308 0.522449 0.77088416 -0.17858787 -0.069795005 0.3231794 0.028268985 -0.23285069 0.37396765 -0.87165177 0.041244633 0.17211305 -0.7731209 -0.3398979 0.59384465 -0.87919265 -1.4522789 0.020473853 -0.1426622 1.2206771 -0.43900266 0.014186642 -0.9596402 -0.28490436 -0.18779309 -0.27844644 0.39467782 -0.67010826 -0.49921742 -0.055734582 -0.599086 -0.75744224 -0.04804406 -0.75821066
448_3_353 -0.34941483 0.033514332 -0.26798162 -0.08328641 0.92274797 -0.692502 0.06695224 -0.150563 -0.13498035 -0.26187652 -0.345646 0.39346942 0.52393574 0.17252521 -0.43664742 -1.1260093 -0.6343183 -0.31000817 -0.21562311 -0.64625305 0.28663123 -0.5390203 -0.7364381 0.45388326 0.009168742 -0.20086724 0.20650591 0.39822453 0.09556787 0.06712566 0.60943943 0.06873094 0.05155997 0.35956997 -0.35301185 0.5269262 0.09500757 0.15919313 -0.5308537 -0.38997936 -0.22356285 -0.39335278 -0.60525167 0.013089897 -0.41620597 -0.7737431 -1.0662823 0.4418484 0.81238234 1.0132319 0.7145884 1.1834167 -1.0183419 -0.86749834 -1.383977 -0.4192102 -0.5227792 -0.7528874 0.84814835 -0.2515581 -0.5943093 0.35547528 0.046372477 0.2562072
433_2_354 1.193687 0.08974067 -0.47019893 -1.1835264 -0.23461728 -0.8081922 -0.304164 -0.46097282 -0.037317537 0.97718936 0.40562347 0.020412086 0.32550985 -0.117629685 0.013196683 -0.47428137 -0.3953543 1.3480792 0.16319051 -0.52913517 -0.0039491397 -0.62514645 -0.26157436 0.5068874 0.69234264 0.1591107 0.19257021 -0.37586427 0.13650922 -0.5719635 -0.44646168 -0.058196694 0.71907675 0.22354145 0.5146751 0.38265008 -0.1598207 -0.86031955 -0.009539138 -0.4660049 -0.375716 0.41506895 -0.8709927 -0.26145774 0.38796052 -0.5544268 -1.1508666 -0.42171916 -0.45666504 1.0305151 0.6833163 0.18734653 -0.9911654 -0.10080205 0.006543772 0.019677293 0.025216412 -0.23400706 -0.07875958 -0.5242065 -0.89060783 0.89664334 -0.26291353 -0.6484469
402_4_444 -0.60937166 -0.90505123 -0.10102431 0.967007 -1.1468352 -0.3395688 -0.2328086 0.48011744 -0.77837217 -0.027091855 0.7569206 0.32194117 0.7493957 0.19137546 -0.14506236 2.6042817 -1.5439445 1.7229995 0.5082404 0.42787644 0.4116631 1.0877571 1.5638189 -1.469768 0.6478632 -0.44341624 -1.0672323 -1.2538348 1.3250339 -0.15362294 -1.473769 0.86529654 -0.18778369 -0.21339248 -2.4981782 -0.68963087 0.25124565 -1.4505343 1.189759 0.4238609 -0.44453028 -0.3931847 1.3519232 -0.9499818 0.45534182 0.24880116 1.2958474 0.5910841 -0.08570952 0.7384845 -0.8780263 -1.5038536 -1.852546 2.4132295 0.034199663 1.2007631 -0.11869024 0.3660419 -1.8184149 1.268916 -1.4306473 -0.05517303 -0.14143866 -0.7305089
433_3_355 -0.5359239 -0.52241015 -0.5292783 -0.8496657 -0.55504316 -0.6713961 -0.30306146 -0.8378028 -0.06876308 0.9152503 -0.25304237 0.0010340527 -0.55764043 -0.22220358 -0.36387837 -0.33489048 -0.5545088 1.13377 -0.1046472 -0.71320695 -0.11798717 -0.42192557 0.22811948 0.5277933 0.5337991 0.64416844 0.29155332 -0.5637889 -0.158839 0.082166225 -0.045555137 0.054245934 0.43651256 0.017597856 -0.19438274 -0.028863786 0.089380585 -0.72251225 -0.109846815 -0.24071166 0.17264694 0.9014666 -1.0859998 0.34819362 0.051482312 -1.7887113 -0.9628365 -0.8141624 -0.7763773 1.4767921 0.227785 0.5467489 -1.1483423 -0.81637037 -0.4620362 -0.49216536 0.33626652 -0.60938895 -0.64664257 -0.4306608 -0.64081377 0.19637185 0.20832296 -0.43997654
448_2_354 -0.11265891 0.61496264 0.64078486 -0.64810795 0.3809139 -0.12108469 0.8402055 -0.27037716 0.2442916 0.34406626 -0.31468934 0.50635636 0.80712044 0.5508106 -0.22242366 -1.1402886 -0.2347606 0.037900787 -0.05933469 -0.48154247 0.49827665 0.10671097 -0.6514716 0.48549327 0.17856519 -0.027700651 -0.22397244 0.3467357 -0.344655 0.5246866 0.21235745 -0.39009184 0.51450014 1.3865129 0.3592977 0.14857844 0.04635036 0.02150021 -0.57827276 -0.7382912 -0.30416477 0.29533532 -0.7978721 -0.62487966 0.28072092 -0.9666601 -0.5302858 0.22668241 0.4206954 0.7434144 0.4322881 1.163022 -1.4592974 -0.9871022 -1.4145174 -0.8762961 0.8273163 -0.83897156 0.8695219 0.15754645 -0.10324188 0.28034452 -0.46671963 0.013858293
403_1_447 -0.8791117 -0.56050456 0.5671437 0.5238598 -1.5825189 -0.42749274 -0.51734763 0.24952222 0.057456836 -0.31668988 1.4241654 -0.039293166 1.3913275 0.35805055 -0.1062599 2.82313 -1.2713643 1.8024844 0.008447962 0.6995636 0.028249364 0.65887266 1.5690935 -0.5562437 0.84539455 -0.45148885 -0.8158282 -1.1096647 0.8701587 -0.3741896 -1.3361478 0.61317444 -0.008248482 0.38034344 -2.3764887 -1.2911332 -0.28598657 -1.3874861 0.6245592 0.7349413 0.047498442 -0.76771253 1.3816739 -0.5442002 -0.514074 0.54846984 0.5360812 1.0448834 -0.22994736 0.21663582 -0.49506283 -0.12450408 -1.349133 1.8574722 -0.79099685 1.4693538 0.5989879 0.37240663 -1.508797 1.5644486 -0.62493855 -0.20239837 0.068675674 -1.6553898
448_1_355 0.096964836 -0.36947826 0.3335474 -0.057799242 0.642601 -0.21861605 -0.14591399 0.080492325 0.11098583 0.06541754 0.2918762 0.2780756 0.2783447 0.5642673 -0.16262434 -1.6535221 -0.4340587 -0.10195093 0.11605145 -1.2161213 0.9227744 -0.22078209 -1.25128 -0.44673392 0.50430053 0.49116707 0.99563366 -0.09522351 -0.52810127 0.33689076 0.033012584 -0.19809763 0.5412726 0.55854774 -0.40502605 0.097679906 0.4911408 0.14294942 -0.78696984 -1.0313379 0.25188294 0.1814693 -0.98225355 -0.09293469 0.5080109 -0.52393425 -0.8225227 0.4537652 0.43195626 1.495205 0.111701 0.96715456 -1.149838 -1.3968649 -1.3370944 -0.43500528 0.5099647 0.026874183 1.1731534 -0.19991529 -0.16050346 0.329698 -1.0059066 0.63880867
403_3_534 -0.30383134 0.060491834 -0.37629884 1.31931 -1.4244283 -0.59824735 -0.4114669 0.7646378 0.23345728 -0.03531245 0.42177135 -0.19904248 1.0120994 0.0712745 -0.10625257 2.6746483 -1.1158954 1.744837 0.8713737 0.5042148 -0.116959535 0.92036396 1.3419005 -0.32946754 1.0013413 -0.216446 -0.3981103 -0.9993415 1.2380422 -1.1052939 -1.616484 1.1266617 -0.8261884 -0.15076835 -2.8718388 -0.9094832 -0.25610477 -1.7838011 0.6259946 0.92095715 -0.21812905 -0.3813773 0.5064636 0.2746438 -0.1553118 0.34340885 1.2269768 0.6745497 0.41590172 0.6493648 -1.1728567 -1.0192269 -1.0493791 2.1790187 -0.71217704 1.1710352 0.7045559 0.6054027 -1.3100111 1.3839643 -1.5375459 -0.18780804 -0.40258244 -0.7949114
395_1_445 0.25532407 -0.10985479 -0.96596974 3.7988842 -2.1067603 2.2520666 0.14996853 0.99910396 -1.206651 -4.292795 0.74722236 -2.6141849 0.6247514 1.6638814 -1.724216 3.6677384 -3.0397878 3.2377794 2.5901039 0.8597938 -0.8809842 2.0923707 -0.38818127 1.2905704 0.69904494 -4.3996353 -3.9593227 -2.83698 1.9161257 -0.57035154 0.5198491 3.1283958 -5.0313044 -2.005055 -6.320507 1.5005736 1.6191766 0.5776817 1.0941749 1.2966329 1.5059003 -0.44694462 3.2255464 -0.20732263 -1.9152266 1.9353204 4.185164 0.7215577 0.17433234 -1.228068 -1.1997199 2.1812375 -0.6847379 2.3915644 -0.12467791 5.012617 0.17908195 2.2918432 -3.2161772 5.1913357 -3.717974 0.32402182 -2.143508 -3.4118462
434_1_356 0.30075032 -0.23215471 -0.5990507 -1.0264752 -0.8952232 -0.7806854 0.41892612 0.11238024 0.0939028 1.239928 -0.19030462 0.40933812 -0.038273726 -0.014802593 -0.24381417 -0.08738009 -0.39346838 0.54576945 -0.18089625 -0.8346705 0.58956397 -0.10107561 0.4018739 0.2562236 0.34785596 0.6108299 1.241179 -0.4158278 -0.45884287 -1.1133742 0.77062064 0.21736239 0.7791813 0.5611439 -0.2669598 -0.12149014 -0.11980803 -0.662598 -0.46331742 -0.57080245 -0.01445579 0.6466677 -0.6701461 -0.06541779 0.2381825 -0.8395953 -1.8281499 -1.4453716 -0.14407639 0.6743866 0.8343103 0.83948183 -1.7343599 -0.271279 -0.026206994 0.20626213 0.15516886 -0.49042612 -0.14310728 -0.3606616 -1.0955276 0.17339267 -0.2838095 0.023359757
403_4_535 -0.4953457 -0.37904918 0.2945696 0.8136292 -1.193219 -0.0060780304 0.13185544 0.97546124 -0.15124954 0.019882359 1.1112386 -0.33028445 0.6765421 -0.09453117 -0.7921821 3.2938454 -1.024504 2.320585 0.8279651 0.34764653 0.22479078 0.77789176 1.4281389 -0.6525349 0.93022215 -0.91277605 -0.71145713 -1.6936896 1.3990293 -0.24294147 -0.8116002 0.964608 -1.4860022 0.03299809 -2.563781 -0.5446015 -0.2933611 -0.6885075 0.88763636 0.6698656 0.11785944 -0.723641 0.7133115 -0.058601204 -0.00037307816 0.65270746 1.1396679 0.5520309 -0.45815086 1.2070518 -0.38765362 -0.25027487 -1.3584226 2.426782 -0.5283023 1.5204625 -0.3566881 0.8219453 -1.6447995 2.158421 -0.82943046 -0.051446058 0.29939583 -0.9611294
575_2_535 0.077166244 -0.1709516 -0.6215453 3.6662579 -1.8260531 2.270688 0.09519239 1.2640413 -1.0379016 -4.17511 0.4862895 -2.2892494 0.72397363 1.7446123 -1.6688726 3.4877844 -2.9356813 3.173443 2.6478581 0.91941583 -0.6506935 1.9250866 -0.3761072 1.1936213 0.9464672 -3.8661306 -3.5984638 -2.4951856 1.8095917 -0.64732784 0.45570254 2.8936534 -4.917853 -1.9344016 -5.9365644 1.5482733 1.7077984 0.64795727 1.0998203 1.3039124 1.2633181 -0.41939038 3.1758335 -0.26378745 -1.8038107 1.7585399 3.983289 0.6251232 0.13155663 -1.0629689 -1.1577305 2.0366716 -0.6179435 2.3317847 -0.17971428 4.695611 -0.0025106247 2.054117 -2.9683046 4.9683185 -3.4579682 0.29168475 -2.1213322 -3.421802
434_2_357 0.5547531 -0.29831034 -0.5262659 -0.8321855 -0.090372376 -0.30477655 -0.64408654 -0.5119811 -0.1982924 1.3762345 0.4293228 -0.2772399 -0.13824147 -1.1221956 -0.2576946 0.03460471 -0.30581337 1.3349104 -0.021133862 -0.25066212 0.8209752 0.07216519 -0.4176413 -0.4258109 -0.16349687 0.8824788 0.98128486 -0.5655519 0.1213202 -0.41658318 0.37495765 -0.562302 0.7375653 0.3629194 -0.4440227 0.093622334 -0.35548067 -1.5705897 -0.1640405 -0.8334329 -0.747039 0.9806142 -1.2664629 -0.46099535 -0.70130813 -1.0990156 -2.0065544 -0.6032417 -0.531671 1.1295856 -0.23150527 0.9900558 -1.3819793 -0.9632883 -0.4293575 -0.2535122 0.06033995 -1.0724558 0.33659926 -0.034521274 -0.6601461 0.07579013 -0.1831206 -0.28679276
449_3_356 0.17291379 -0.070279814 0.19434181 -0.25046736 1.022823 -0.2750286 0.33387986 -0.06119241 -0.5122756 0.22231643 -0.41043708 0.64615965 0.57102245 -0.20202845 0.13379423 -1.1589121 -0.29479283 -0.21345966 0.049346216 -0.6568886 1.1089789 0.2231173 -0.6084762 -0.21917695 0.9433365 0.63649434 0.5129186 0.49930954 -0.75023276 1.2080984 -0.3144018 -0.060547706 1.1510978 0.7792308 0.14083563 0.3567185 -0.8050929 -0.21983248 0.22011599 -0.48062223 -0.7654803 0.16349347 -1.7350885 0.22649786 0.2621731 -0.7218777 -1.2730426 0.05937096 0.80297524 1.2573894 0.6062952 1.5769929 -1.2862364 -1.2733334 -1.4518275 -0.70367515 -0.03649523 -0.9604468 0.27468255 -0.17743815 -0.9830295 -0.17259875 -0.6428394 0.85344154
575_1_537 0.18095453 -0.1893047 -1.0827373 3.5725694 -1.9332024 2.2788422 0.13968268 0.9077393 -1.1682462 -4.0578814 0.5802424 -2.4696352 0.6229675 1.580653 -1.626193 3.425903 -2.9307625 3.0208766 2.5173128 0.89669293 -0.55763984 1.9946524 -0.4263098 1.383264 0.7712238 -4.0024614 -3.6928596 -2.7436857 1.7621294 -0.45604014 0.57609403 2.900576 -4.779495 -1.8327228 -5.8915014 1.3764365 1.6782248 0.60547084 1.047771 1.2381378 1.4838322 -0.49980223 3.1268826 -0.31025752 -1.7843018 1.8494284 3.8782833 0.80970603 0.21430372 -1.0922512 -1.1642385 1.9854443 -0.6076966 2.3848064 0.002852729 4.7927856 0.28314003 2.1905234 -3.0216017 4.895237 -3.3834128 0.27498168 -2.1207814 -3.441248
449_2_357 -0.48649865 -1.2606938 0.50958073 -0.63300985 1.1502987 -1.0356808 -0.06406304 0.39744917 -0.40217763 1.5131781 0.21465051 0.52155894 -0.18156703 0.08399258 0.36590615 -1.6182544 -0.85566103 0.29133746 -0.41483262 -0.9177179 0.81013775 -0.35281286 -0.4349043 0.077054806 0.015239979 -0.13181494 1.8292637 0.44308785 -0.094986096 0.05493247 -1.0537288 -0.6292433 0.8821397 1.2862612 -0.027719937 0.23598321 0.16586831 -0.435751 -1.225084 0.055448543 -0.8671055 0.5359968 -2.0204139 0.26783478 0.6715449 -1.0812187 -1.6900942 -0.093759954 0.031152472 1.240433 1.0392785 -0.4916308 -0.74620074 0.21501328 -1.9057844 -0.833123 0.8278484 -3.1523278 1.5656765 0.011146582 -0.12840627 0.009313613 -0.13645315 0.0018047955
435_1_359 0.23571515 -0.29229224 0.3824246 -1.1605608 -0.18839853 -0.9155322 -0.42205435 -0.39544588 0.86165005 0.74095935 0.65120095 1.0145065 0.4111968 0.5102542 0.5772506 0.49913085 -0.6993754 0.599992 0.061266597 -1.436266 0.33993515 0.11673256 1.1151338 -0.3600509 0.68716294 1.1380017 0.67208153 -0.6196209 -0.6363501 -0.025230234 -0.3286427 -1.1128007 1.6262376 0.031526137 -0.48756877 0.22258976 0.48523155 -1.3366826 -0.22600424 -0.27086627 -0.5980875 0.027920779 -2.04209 0.021810465 -0.09411066 -1.3877932 -2.3648813 -1.057872 0.10268556 1.6198803 -0.34217015 0.46258712 -1.4001389 -0.66482025 -0.87709314 -1.3753585 0.15924217 -0.36651754 0.6824643 0.45455164 -1.880577 0.44358292 -0.33531696 0.045542855
403_5_536 -0.4778412 -0.00038397158 -0.5365039 1.3516965 -2.0556452 0.64077896 -0.12862824 0.46222785 -0.18789016 -1.0664032 1.0431927 -0.87553334 0.7354651 -0.12363743 -0.83810234 3.5186515 -1.4823245 2.224723 0.7759333 0.6481515 0.2677324 1.5512134 1.3186908 -0.52768433 0.74553186 -2.0342681 -1.4869652 -1.3854344 1.4090722 -0.59884036 -1.022605 1.3986897 -1.1120663 -0.73717785 -3.8380594 0.21824153 0.8714591 -0.96788627 1.1616762 0.6364543 0.049235128 -0.9488207 1.8791469 -0.6901259 -0.59152293 0.91090804 1.9923928 0.6856751 -0.15027303 0.47567105 -0.6855548 -0.49666846 -1.1299973 2.6521044 -0.29860637 2.4431572 1.0194625 1.3929734 -1.6207533 2.2755032 -2.070366 0.075150006 -0.15248975 -2.2409608
